-0.01227 0.05150 -0.00495 -0.01940 -0.06041 0.02969 0.24649 -0.03841 -0.00707 0.03044 0.00139 0.07712 -0.00866 0.07466 -0.06570 -0.00031 0.05964 0.00592 -0.03752 0.05502 -0.00797 0.01270 0.04677 0.03813 -0.00868 0.06670 -0.00062 0.00305 0.01680 -0.00812 -0.00664 -0.05372 0.02591 -0.02397 0.05343 0.07474 0.18774 0.00030 -0.01350 -0.01130 0.00785 0.06249 -0.01100 0.05915 0.05795 -0.00221 0.00330 0.04858 -0.01116 0.12227
-0.01617 0.03672 -0.00542 -0.01021 -0.03836 0.03600 0.24673 -0.03182 0.00238 0.01918 -0.00050 0.03665 -0.02045 0.05095 -0.06810 -0.00530 0.04783 0.00409 -0.03829 0.02918 -0.00072 0.00359 0.03476 0.02955 -0.01814 0.07407 -0.01633 0.00172 0.01539 -0.02255 -0.00689 -0.02078 0.04337 -0.02640 0.04740 0.06214 0.18447 0.00241 -0.01309 -0.01397 -0.00917 0.07106 -0.01472 0.04360 0.06965 -0.02629 -0.00120 0.03802 -0.02515 0.11966
-0.00334 -0.00605 -0.01094 0.00072 -0.02334 0.03351 0.02492 -0.02441 -0.00901 0.01082 0.00038 0.03615 -0.01968 0.00154 -0.05522 -0.01963 0.03738 0.01996 -0.02198 0.00682 -0.00744 0.02511 0.00496 0.04325 -0.00624 0.04762 0.00051 0.00684 0.02122 -0.00107 -0.00250 -0.01701 0.01496 -0.02120 0.00948 0.07662 0.18130 -0.00023 -0.00341 -0.02083 0.00949 0.00523 -0.00757 0.01476 0.01124 -0.00720 -0.01341 0.01431 -0.02260 0.01029
-0.01608 0.03226 0.00614 -0.01039 -0.03614 0.04358 0.09322 -0.04328 0.00790 0.04476 0.00858 0.06623 -0.00976 0.10590 -0.05994 -0.00724 0.07654 0.06205 -0.03264 0.02904 0.01303 0.02578 0.03567 0.05355 -0.00876 0.06788 -0.00959 0.00096 0.05003 -0.00895 -0.01550 -0.03943 0.03625 -0.02395 0.02763 0.09610 0.19236 -0.00701 -0.01866 -0.02870 0.00796 0.01607 0.00156 0.03062 0.01843 -0.01947 0.00764 0.01525 -0.01872 0.06876
0.00734 -0.00902 0.00088 0.00430 -0.02145 -0.00855 0.01967 0.01228 0.00532 0.01262 -0.00623 0.00197 -0.00902 0.00071 -0.03691 -0.00022 -0.00758 0.01219 -0.02257 0.00114 0.00043 0.00156 -0.02132 -0.01265 -0.00039 -0.06132 -0.00265 -0.00046 0.00203 -0.00356 0.00787 -0.00345 -0.02890 0.00070 -0.01008 -0.01000 0.02590 0.00320 -0.00664 -0.01288 0.00013 -0.00278 0.00101 0.00425 -0.00561 -0.00272 0.01409 -0.00369 -0.00114 -0.00152
-0.02605 0.06119 0.00390 -0.00996 -0.03300 0.04740 0.26265 -0.02976 -0.00359 0.02410 0.00772 0.05053 -0.01894 0.05695 -0.08502 -0.01585 0.05690 0.00924 -0.03760 0.05904 -0.01447 0.01824 0.04627 0.03978 -0.02906 0.07679 -0.00044 -0.01434 0.02250 -0.01525 -0.00570 -0.02236 0.06024 -0.02325 0.06958 0.07503 0.16943 -0.01480 -0.01999 -0.01570 -0.00204 0.05403 -0.00982 0.07380 0.06725 -0.01325 -0.00090 0.05305 -0.00976 0.12229
0.01119 -0.00876 -0.00199 0.01163 -0.00716 -0.00531 0.01289 -0.01147 -0.00979 0.01467 -0.00540 0.02848 -0.00780 0.01973 -0.02894 -0.00920 0.01248 -0.00478 -0.00493 -0.00488 0.01512 0.00967 0.00960 -0.00493 0.00464 -0.01121 -0.01473 0.00422 0.00483 0.01309 0.01078 0.01139 0.00699 -0.00946 0.00199 0.00284 -0.00269 0.00417 0.00550 0.00286 0.00854 0.00616 -0.00006 -0.02542 -0.00284 0.01085 0.01177 0.00519 0.00895 0.00429
-0.01472 0.00851 0.00710 -0.01546 -0.04385 0.02428 -0.00057 -0.04553 0.00867 0.00464 0.00432 0.06070 -0.02039 0.03009 -0.06215 -0.00427 0.04132 0.02906 -0.01950 0.01317 0.01755 0.01842 0.00243 0.04250 -0.00815 0.04841 -0.01579 -0.00253 0.01847 -0.02106 -0.00706 -0.02565 0.00561 -0.01508 -0.00108 0.08608 0.19335 0.01140 -0.00916 -0.00835 -0.00301 -0.00795 -0.00288 0.01855 0.01266 -0.01435 0.00594 -0.00043 -0.01806 0.02094
0.00101 -0.00465 0.00214 -0.00050 -0.01205 -0.00641 -0.01426 -0.00034 0.00736 -0.00385 0.00629 -0.00917 -0.00993 -0.00478 -0.01549 0.00336 -0.00081 0.00276 -0.00323 0.00572 -0.00472 -0.00100 0.00819 -0.00006 -0.00247 -0.00915 -0.01033 0.00034 -0.00701 -0.01573 0.00384 -0.00500 -0.00494 -0.00467 0.00770 -0.01375 -0.00311 -0.01475 -0.01035 -0.00451 -0.00197 -0.00029 -0.00897 -0.00397 -0.00907 -0.01521 -0.00829 0.00268 -0.01249 0.00594
-0.01475 0.02549 0.00683 -0.01727 -0.04433 0.04858 0.07898 -0.05155 -0.00008 0.03058 -0.00054 0.06944 -0.02020 0.07663 -0.04404 -0.01156 0.04401 0.05756 -0.04269 0.02930 0.01387 0.03146 0.02244 0.03355 -0.01971 0.03941 -0.01471 -0.00074 0.05814 -0.01852 -0.01712 -0.02989 0.02971 -0.02268 0.02363 0.08587 0.16490 0.00932 -0.01607 -0.02992 0.01690 0.01628 0.00796 0.03026 0.02933 -0.02469 0.00596 0.01004 -0.00514 0.05446
-0.12057 -0.03980 -0.00962 -0.12017 -0.03978 -0.06504 0.14291 -0.10326 -0.00559 -0.03251 0.00101 0.09278 -0.12211 0.24027 0.03255 0.00271 -0.00056 -0.02766 -0.06210 -0.03795 -0.01395 0.00677 -0.00842 -0.00337 -0.09521 -0.00490 0.00178 -0.00546 0.12164 -0.03921 -0.01001 -0.01194 -0.01920 -0.09068 -0.01332 0.08427 -0.03843 0.00129 -0.08148 -0.12042 0.01236 -0.06978 -0.00228 -0.06502 -0.08209 -0.12199 -0.00481 -0.02206 -0.03859 -0.03173
-0.00116 0.00755 -0.00434 -0.01121 -0.02529 0.00211 0.00068 -0.01572 0.00122 -0.00836 0.00296 0.00059 -0.00761 -0.00424 -0.00276 0.00667 -0.01283 -0.01429 -0.02517 0.00213 -0.00561 -0.00546 -0.00164 -0.00679 -0.00850 -0.00709 -0.01490 0.00000 0.00118 -0.01387 -0.00845 -0.01332 0.00185 -0.01179 -0.00985 -0.01018 0.00623 -0.01351 0.00324 0.00280 -0.01236 0.00035 0.00415 -0.00733 0.00801 -0.01330 -0.01386 -0.00011 -0.00092 0.00092
0.00223 -0.00584 0.01139 0.00491 -0.00090 0.00222 0.01430 0.00463 -0.00272 0.00740 0.00844 0.00753 0.00178 0.00979 -0.02396 0.00806 0.00851 -0.00430 -0.01143 -0.00785 -0.00391 -0.00073 0.00647 0.00555 0.01189 -0.03674 -0.00643 0.01272 0.01327 0.00902 0.01076 0.00061 0.02654 -0.00945 -0.00080 0.00447 -0.07919 0.00890 0.00980 0.00698 0.00734 0.02213 -0.00218 -0.01960 -0.00352 -0.00192 0.01283 -0.00373 0.00193 0.00287
-0.05213 -0.00888 0.00709 -0.05254 -0.03502 0.01894 0.14914 -0.04847 -0.00775 0.12947 0.00088 0.06391 -0.04772 0.19144 0.01464 -0.02871 0.03861 0.09765 -0.05353 -0.00636 -0.00019 -0.00069 -0.00448 0.04046 -0.03204 0.07599 -0.01655 -0.00899 0.08720 -0.05180 0.00688 -0.01929 -0.02087 -0.06509 -0.00821 0.15643 0.11210 -0.00269 -0.03982 -0.06615 0.02417 0.07276 -0.00409 0.01247 0.09455 -0.04866 -0.00523 -0.03470 0.00802 0.12097
0.00297 -0.02803 0.00023 -0.01259 -0.01088 -0.00428 -0.03473 -0.01394 -0.00581 -0.00274 0.00721 0.00113 -0.00197 -0.00991 -0.03325 -0.00564 -0.00290 0.00066 -0.00351 -0.02224 0.00136 -0.00759 -0.01644 0.00055 -0.01301 0.02524 -0.00850 -0.01429 -0.01307 -0.00942 -0.01344 -0.00703 -0.02999 -0.00217 -0.02705 -0.00412 0.04873 -0.01078 -0.01018 -0.00309 0.00186 0.00603 -0.00106 0.00304 -0.00799 -0.00555 -0.00211 -0.01754 -0.00060 0.01766
-0.00624 -0.00299 -0.00292 -0.00505 -0.00257 0.00787 -0.00934 -0.00268 0.00885 -0.00550 0.00684 -0.00097 -0.01251 -0.00272 -0.00418 -0.00104 0.00028 -0.00470 -0.00405 0.00750 -0.00219 0.00279 -0.00810 -0.00857 -0.00904 -0.02238 0.00249 -0.00827 0.00196 -0.00347 -0.00481 -0.00743 -0.00421 -0.00517 -0.00868 -0.00955 0.00094 -0.01422 0.00207 0.00047 -0.00241 0.00929 -0.00715 -0.00477 -0.00076 -0.01133 -0.00017 -0.00318 -0.01030 -0.00103
-0.00439 0.00236 -0.00954 -0.00596 -0.00190 -0.00162 -0.00714 -0.00239 -0.00835 0.00023 0.00342 -0.00332 0.00477 0.00022 -0.00333 -0.00729 -0.01405 -0.01151 -0.00964 -0.00195 -0.00038 0.00039 -0.00705 -0.01027 -0.00726 -0.01315 -0.00534 0.00861 -0.00691 -0.00747 -0.00847 -0.00324 -0.01492 -0.01371 0.00957 -0.00112 0.00517 0.00300 -0.00938 0.00094 0.00185 -0.00141 0.00166 0.00392 0.00127 -0.00445 0.00474 -0.00533 0.00286 0.00691
-0.00026 -0.01152 -0.00207 0.00378 -0.00937 -0.01293 -0.00729 -0.00593 -0.00480 -0.01465 0.00830 -0.00100 -0.00580 -0.01238 -0.00375 -0.00751 -0.01181 -0.01147 -0.00516 -0.01040 -0.00283 -0.01533 0.00195 -0.01091 -0.00356 -0.00262 -0.01483 0.00520 -0.00670 -0.00548 -0.01239 0.00224 -0.00086 0.00225 0.00383 -0.00515 0.00977 -0.00850 -0.00361 -0.01563 0.00343 0.00121 0.00498 0.00033 -0.01549 -0.01422 0.00952 -0.00343 -0.00657 -0.01389
0.00003 -0.00297 0.00159 0.00937 -0.00574 -0.01126 -0.00271 -0.00814 -0.00887 -0.01435 -0.00404 0.00048 -0.00339 -0.01021 -0.01281 -0.00672 -0.01565 -0.01272 -0.00794 -0.01043 -0.00970 -0.01586 -0.00054 -0.00347 -0.01309 0.00107 -0.01188 0.00851 -0.01025 -0.00396 -0.00417 -0.01642 0.00171 -0.01312 -0.01398 -0.00298 0.00588 -0.01064 0.00338 -0.00815 0.00165 0.00211 -0.00857 -0.00138 -0.01331 -0.01431 -0.00875 -0.01188 -0.00081 0.00180
-0.00703 -0.01013 -0.00645 -0.00591 -0.00629 -0.01148 -0.00022 -0.00776 0.00526 -0.00332 -0.00758 -0.01446 0.00683 -0.00982 -0.01203 0.00865 0.00009 -0.01120 -0.00802 -0.01816 -0.00041 -0.00027 -0.00560 -0.00543 -0.01289 0.00164 -0.00896 0.00243 -0.00005 0.00873 -0.00403 -0.00402 -0.00476 -0.01528 -0.00390 -0.00285 -0.00828 -0.00564 0.00301 -0.01675 -0.00614 -0.00196 -0.00352 -0.01597 -0.01468 -0.00749 -0.00407 -0.00515 -0.01841 -0.00072
-0.01364 0.06889 -0.00225 -0.01626 -0.05082 0.04994 0.24898 -0.02320 0.00713 0.01999 0.00414 0.05554 -0.01038 0.05700 -0.09355 -0.00688 0.05859 0.01182 -0.03543 0.05372 -0.01152 0.00624 0.05494 0.01972 -0.00999 0.07741 -0.01401 -0.00298 0.01164 0.00030 -0.00520 -0.03029 0.04247 -0.02665 0.06875 0.07760 0.18861 -0.00185 -0.00924 -0.01237 0.00707 0.06044 0.00338 0.07267 0.07136 -0.00247 0.00104 0.07316 -0.01649 0.11609
0.00617 0.00316 -0.00659 -0.00378 -0.03089 0.01953 0.00775 -0.06364 0.00662 0.01219 -0.00207 0.03598 0.00035 0.02169 -0.04623 -0.00195 0.04386 0.02310 -0.02754 0.01584 -0.00337 0.02031 -0.00074 0.02679 -0.00589 0.04299 -0.01675 0.00014 0.02014 0.00320 0.00432 -0.01819 0.00467 0.00739 0.02254 0.05523 0.19430 -0.01044 -0.00093 0.00205 0.02067 0.00831 -0.00071 0.02187 0.00675 0.00154 -0.00214 0.02462 -0.01244 0.02221
-0.00668 -0.00571 0.00005 0.00693 -0.01335 0.00118 0.00271 -0.00379 0.00198 -0.01361 0.00108 -0.00557 0.00928 -0.00700 -0.00695 0.00795 -0.00791 -0.00611 -0.00487 -0.00590 -0.00416 -0.00870 -0.00280 -0.00034 -0.00432 0.00296 0.00316 -0.00740 -0.00277 0.00322 0.00390 -0.00673 -0.00709 -0.00982 -0.01500 0.00335 -0.00754 -0.00633 -0.00224 -0.00510 -0.00568 -0.00161 -0.00193 -0.00225 0.00091 -0.01505 0.00985 0.00176 -0.00719 -0.01218
0.00252 -0.00413 -0.00606 0.00042 -0.00064 -0.00532 -0.01675 -0.00030 0.00149 -0.01263 0.00567 -0.00826 0.00260 -0.00639 -0.00235 -0.00048 0.00276 -0.00409 -0.01152 -0.01190 -0.01278 -0.00779 -0.00199 0.00006 -0.01316 -0.00858 -0.00060 -0.00327 0.00239 -0.00421 -0.01114 -0.01120 -0.01186 -0.00134 -0.01287 -0.00757 0.00338 -0.01033 -0.01070 0.00114 -0.00683 -0.01854 -0.01437 -0.01405 -0.00324 0.00357 -0.01204 -0.01122 -0.00450 -0.00344
0.00049 0.03377 0.00364 -0.00025 -0.03875 -0.01180 -0.01140 0.12982 -0.00488 0.00129 0.00495 -0.00143 -0.01722 -0.01897 -0.00462 0.02805 -0.01100 -0.01757 -0.04157 -0.01512 0.00169 0.06377 0.19513 -0.02034 -0.01262 -0.09805 0.00211 0.01233 0.00761 -0.01145 0.01571 -0.02624 0.07535 0.07486 -0.00175 -0.02508 -0.00537 0.00839 -0.00174 -0.01259 0.00596 -0.00489 0.00844 -0.06969 -0.00278 -0.01985 0.00418 -0.01205 -0.00458 0.01123
-0.02204 0.05872 -0.01146 -0.01081 -0.03659 0.03688 0.16112 -0.04187 0.00755 0.07869 0.00769 0.04510 -0.01644 0.12164 -0.04881 -0.00377 0.05407 0.06481 -0.03907 0.05418 0.00292 0.03000 0.05325 0.02338 -0.02500 0.05589 -0.01882 0.00168 0.06200 -0.02425 -0.00900 -0.01817 0.04684 -0.04883 0.05628 0.08283 0.18026 -0.00574 -0.01810 -0.01568 0.03426 0.04798 -0.00250 0.05347 0.06324 -0.02289 -0.00175 0.04903 -0.02805 0.08618
-0.00074 0.00136 0.00340 0.00134 -0.00644 -0.02187 0.01623 -0.00664 -0.00895 0.01105 -0.00775 -0.02041 -0.00190 0.00977 -0.03601 -0.00493 -0.00506 0.01195 0.00115 -0.01009 -0.00800 0.00599 -0.01388 -0.00757 0.01078 -0.01214 0.00672 0.01057 0.01492 0.01565 0.00394 -0.00882 -0.01179 -0.00150 -0.00495 -0.00052 0.00417 0.00747 0.00441 0.00843 0.00367 0.01569 -0.00555 -0.00362 0.00740 0.00416 0.00454 -0.01203 -0.00085 0.01705
-0.09281 -0.04503 -0.00656 -0.11105 -0.02310 -0.02951 0.12563 -0.07210 0.00050 -0.03572 -0.00964 0.06316 -0.09690 0.10700 0.03982 -0.00698 0.00636 -0.00716 -0.04000 -0.03874 0.00148 -0.03263 -0.02297 0.05443 -0.07819 0.00933 -0.00815 -0.00216 -0.00085 -0.03955 -0.00372 -0.00874 -0.03844 -0.05241 -0.01680 0.06838 -0.02731 -0.00253 -0.08115 -0.09451 -0.01225 -0.03479 -0.00911 -0.04588 0.01403 -0.10275 -0.00269 -0.03302 -0.02182 -0.01048
-0.03209 -0.00308 -0.00290 -0.03510 -0.02903 -0.00229 0.00223 -0.00027 -0.00727 -0.00147 0.00140 -0.00150 -0.02321 -0.01582 -0.02566 0.00581 -0.00831 -0.00865 -0.03212 -0.00073 -0.01262 -0.00993 -0.01501 -0.01275 -0.04269 0.00057 0.00261 0.00205 -0.01557 -0.02170 -0.00750 -0.01541 -0.00110 -0.00295 -0.01255 -0.00097 -0.02015 -0.00875 -0.03580 -0.04117 -0.00422 -0.01337 -0.00843 0.00035 -0.00846 -0.03006 -0.00276 0.00021 0.00198 -0.01097
-0.17875 -0.04909 0.00382 -0.17591 -0.08908 -0.05648 0.08963 -0.09079 0.00478 -0.04018 -0.00641 0.07845 -0.19255 0.23707 0.06107 0.00078 -0.01314 0.01973 -0.09338 -0.03630 -0.00822 -0.00615 -0.03991 -0.00649 -0.17242 -0.00637 -0.00508 0.00757 0.13780 -0.07419 0.00365 -0.01771 -0.04459 -0.08801 -0.04206 0.12016 -0.00842 -0.00980 -0.17537 -0.20171 0.00493 -0.03547 -0.00512 -0.07090 -0.04255 -0.18349 -0.00589 -0.04189 -0.05555 -0.01801
0.00094 0.06669 -0.00405 0.00556 -0.06007 0.06856 0.29192 -0.02759 -0.00589 0.09619 -0.00566 0.07509 -0.01535 0.13215 -0.08917 0.00046 0.09429 0.05521 -0.05190 0.05959 -0.01486 0.03751 0.06475 0.05775 -0.01192 0.06666 -0.02407 -0.00807 0.06532 -0.00728 -0.01136 -0.05242 0.05524 -0.04816 0.07602 0.11195 0.18117 -0.00392 -0.00623 -0.00489 0.05053 0.05923 -0.00141 0.06169 0.06839 -0.00050 -0.00586 0.06641 -0.01208 0.11288
-0.01474 0.05807 -0.00799 -0.00354 -0.00352 0.04677 0.22731 -0.01479 -0.00222 0.01780 -0.00224 0.06808 -0.01306 0.04093 -0.09202 -0.00054 0.05398 0.00755 -0.01500 0.06061 -0.00955 0.00577 0.03789 -0.01072 -0.00992 0.04862 -0.00861 -0.00663 0.02639 -0.01470 0.00069 -0.00057 0.03560 -0.02856 0.06584 0.06361 0.17942 -0.01290 -0.00223 -0.00613 0.00365 0.03144 -0.00204 0.03888 0.07118 -0.00189 0.00371 0.05739 0.00279 0.10598
0.00401 -0.00547 0.01164 0.01322 -0.00993 0.00155 0.00828 -0.00254 0.00848 0.01617 -0.00353 0.00726 -0.00037 0.00644 -0.01848 0.00786 0.00369 0.00427 -0.00100 -0.00842 -0.00063 -0.00039 0.00329 0.00550 0.01051 -0.00225 -0.00768 0.01125 0.01927 -0.00366 0.00600 0.00910 0.01999 0.00152 0.01168 0.00322 -0.01694 0.00772 0.00650 -0.00536 0.00889 0.00730 -0.00367 -0.02621 -0.00144 0.00029 -0.00220 -0.00728 0.00689 0.00920
-0.00609 -0.01425 0.00420 -0.00829 -0.02402 -0.00134 0.00470 -0.03025 0.00506 -0.01237 -0.00343 0.00235 -0.00388 0.00374 -0.01516 0.00827 0.00072 -0.01056 -0.02737 -0.01412 -0.00408 0.00021 -0.00271 -0.00532 -0.00472 -0.01526 -0.00641 -0.00271 -0.01173 0.00539 -0.00489 -0.01927 -0.01470 -0.02679 -0.00896 -0.01332 -0.00275 -0.00625 0.00555 -0.00475 0.00447 -0.00304 0.00522 -0.01187 -0.00410 0.00028 -0.00178 -0.00227 -0.00246 0.00406
-0.01759 0.04828 -0.00735 -0.00884 -0.02531 0.04006 0.21324 -0.02806 0.00109 0.00273 -0.00624 0.05634 -0.01508 0.02978 -0.07023 -0.01232 0.02619 -0.00361 -0.02924 0.04910 -0.00140 0.00107 0.04672 0.01995 -0.02438 0.05460 0.00183 -0.00197 0.00624 -0.01067 0.00042 -0.02827 0.03286 -0.02173 0.05739 0.04730 0.15925 0.00259 -0.02222 -0.01629 -0.00858 0.06074 -0.00498 0.05439 0.07032 -0.00820 -0.01099 0.04682 -0.02767 0.10580
-0.00584 0.04447 0.00658 -0.00683 -0.06208 0.05671 0.20247 -0.02212 -0.00692 0.07640 -0.00127 0.07886 -0.01727 0.19810 -0.07017 -0.00591 0.06360 0.07456 -0.05700 0.06489 0.00779 0.03944 0.04685 0.03561 -0.00788 0.08860 -0.00738 -0.00372 0.08279 -0.00893 -0.01308 -0.05193 0.05526 -0.05219 0.07256 0.09563 0.17640 0.00073 -0.01368 -0.00972 0.05255 0.04303 0.01601 0.04315 0.04499 -0.00204 0.00018 0.05784 -0.00968 0.10052
-0.00728 -0.00836 -0.00349 0.00260 -0.02905 -0.00713 -0.01230 -0.00949 -0.00248 -0.01133 -0.00277 -0.00040 -0.00525 -0.01258 -0.00788 -0.00171 -0.01108 -0.00405 -0.02839 0.00224 -0.00282 -0.00587 0.00017 -0.03725 -0.00142 -0.01535 0.00240 -0.00543 -0.00150 -0.00637 -0.00239 -0.03607 -0.00528 -0.03054 0.00194 -0.00558 -0.00250 -0.00858 -0.00844 -0.00645 -0.01441 -0.00221 -0.00133 -0.00485 -0.00352 -0.01512 0.00325 -0.00802 -0.00296 -0.01383
-0.00619 -0.00545 -0.00274 0.00713 -0.01995 0.00183 0.00986 -0.01400 0.00191 -0.00923 0.00684 -0.01348 -0.00069 -0.00208 -0.00650 0.00998 -0.00315 -0.00043 -0.02522 -0.00001 0.00912 -0.00405 -0.00689 -0.00354 -0.00156 0.00005 -0.02714 0.00002 -0.00999 -0.00046 0.00388 -0.00890 -0.01334 -0.02272 -0.00239 -0.01096 -0.00033 -0.00246 -0.00817 -0.00719 -0.00397 -0.00355 0.00780 -0.01451 -0.00538 0.00745 -0.00238 0.00316 -0.00879 -0.00194
0.01194 0.00450 0.00563 0.00655 -0.00413 -0.02631 0.00729 0.00495 -0.00702 0.00540 0.00434 0.01236 0.00297 0.01321 -0.01749 -0.00864 0.01792 0.00500 0.00469 0.00457 0.00950 -0.00356 0.00157 0.00077 0.00251 -0.01378 0.00820 -0.00013 0.00064 0.01134 0.00345 -0.00429 -0.01608 -0.00348 0.00710 0.01193 0.00771 0.00352 0.00928 0.00011 0.00828 -0.00216 0.01387 -0.01288 0.00127 -0.00997 -0.00250 -0.00220 -0.00799 0.00238
-0.01433 0.03434 -0.01082 -0.02362 -0.02531 0.01277 0.21960 -0.02197 0.00312 0.00068 0.00700 0.05787 -0.01192 0.03135 -0.06749 -0.01838 0.03001 0.00240 -0.02775 0.03327 -0.00160 -0.01165 0.03223 0.03720 -0.02711 0.04598 -0.00541 -0.01309 -0.00294 -0.01901 -0.01482 -0.03040 0.00401 -0.02227 0.03868 0.05277 0.16072 -0.00256 -0.01999 -0.00645 -0.00316 0.04635 0.00119 0.04025 0.05518 -0.00732 -0.00780 0.04869 -0.02776 0.10858
0.00988 -0.00109 -0.00233 0.00300 -0.01086 -0.02231 0.00686 -0.01374 -0.00470 0.00643 -0.00595 -0.01266 0.00368 0.00810 -0.02915 -0.00669 0.00075 0.01208 -0.01783 0.00100 -0.00341 0.01372 -0.01050 0.01686 0.00602 0.00385 0.00274 0.00538 0.01225 0.01468 0.00306 0.00218 -0.02959 0.00359 -0.01206 -0.00268 0.00641 0.00358 0.01149 -0.00228 0.01397 -0.00359 0.00206 0.00960 -0.01116 0.00750 0.00881 -0.01220 0.00248 0.00806
-0.01273 0.00447 0.00789 -0.01039 -0.02916 0.03071 0.07828 -0.07810 -0.00735 0.02468 -0.00434 0.06686 -0.02708 0.12792 -0.09601 -0.00400 0.03386 0.05109 -0.03218 0.02299 -0.00338 0.03240 -0.01021 0.01606 -0.00968 0.03108 -0.01135 -0.00187 0.07710 -0.01840 -0.01106 -0.02306 0.00272 -0.03836 0.01661 0.11424 0.17257 -0.00835 -0.01774 -0.01949 0.02700 -0.01613 -0.01116 0.01270 0.03205 -0.01983 -0.00986 0.00897 -0.02295 0.04350
0.00299 -0.00259 0.00762 0.01319 -0.01157 0.00490 0.00190 0.00313 -0.00348 0.00879 0.00941 0.00878 -0.00457 0.01581 -0.01646 -0.00264 -0.00138 -0.00319 -0.01994 0.00175 0.01198 0.00247 0.00992 -0.00606 0.01158 -0.01250 0.00997 0.00817 0.00201 0.00973 0.01179 0.00539 0.01086 -0.00469 -0.00426 -0.00252 -0.04955 0.01075 -0.00491 0.00553 0.00022 0.01695 0.01490 -0.00953 -0.00167 -0.00027 -0.00195 -0.00970 0.00074 0.00905
-0.00688 0.02096 -0.01285 0.00392 -0.02128 0.04259 0.03345 -0.03190 0.00335 0.01792 0.00659 0.04894 -0.00661 0.02598 -0.04778 -0.00916 0.03568 0.03441 -0.03214 0.02473 0.00552 0.03030 0.02342 0.01587 -0.00565 0.05104 -0.00630 0.00227 0.02988 -0.00118 -0.00495 -0.01606 0.02261 -0.00786 0.02220 0.06336 0.15256 0.00492 -0.00998 -0.01069 0.01103 0.01241 -0.00510 0.03448 0.01371 -0.01568 -0.00828 0.01911 -0.00696 0.02894
-0.01347 0.06127 0.00254 -0.01748 -0.03571 0.06166 0.22812 -0.01738 0.00032 0.04160 0.00810 0.04244 -0.01797 0.10042 -0.08218 -0.01236 0.06989 0.02007 -0.02761 0.05682 0.00356 0.01621 0.04578 0.02582 -0.02064 0.07027 -0.00553 0.00316 0.01496 -0.02669 0.00003 -0.02780 0.05097 -0.03747 0.07363 0.06637 0.17182 -0.01371 -0.01826 -0.02457 0.02301 0.05362 -0.01112 0.07051 0.05973 -0.02102 -0.00401 0.04632 -0.01261 0.10432
0.00316 -0.00659 -0.00427 -0.00837 -0.01357 -0.01615 -0.01333 -0.00699 0.00982 0.00264 -0.00051 -0.00908 -0.01053 0.00334 -0.00537 0.00158 -0.01592 -0.00122 -0.01090 -0.01273 -0.00427 0.00061 0.00294 -0.00516 -0.01464 -0.00341 -0.00529 0.00261 -0.00644 -0.01563 -0.01464 -0.00826 -0.00412 -0.01602 -0.01273 -0.00978 0.00726 0.00130 0.00343 0.00316 -0.00001 -0.00927 -0.00897 -0.00313 -0.01342 -0.00233 -0.01421 -0.00294 0.00185 0.00037
-0.00639 0.00367 0.00156 0.00421 -0.00890 0.00170 -0.00285 0.00704 0.00310 0.00420 -0.00104 -0.00768 -0.01166 -0.00370 -0.00462 0.00161 -0.01444 -0.00908 -0.01484 0.00148 -0.00802 -0.01146 -0.01492 -0.01208 -0.01045 -0.00242 0.01394 -0.00632 0.00441 -0.00919 0.00372 0.00204 -0.01290 -0.01322 -0.00024 -0.00328 -0.00163 0.00203 -0.01275 -0.00488 -0.00665 -0.00402 0.00856 -0.00966 0.00203 -0.00140 -0.00207 -0.00898 -0.00712 0.00154
-0.00818 0.05399 -0.00358 -0.00813 -0.05148 0.04195 0.22668 -0.01791 0.00848 0.02153 0.00874 0.07182 -0.00452 0.04916 -0.08529 -0.00825 0.03262 0.01242 -0.05010 0.05378 0.00237 0.00269 0.04728 0.02635 -0.00337 0.06049 -0.00072 -0.00688 0.00452 -0.00466 -0.00659 -0.04425 0.02745 -0.02314 0.05392 0.06746 0.17048 -0.01099 -0.00608 -0.00045 -0.00045 0.05720 -0.00981 0.06619 0.06347 -0.00357 -0.00179 0.04593 -0.00482 0.10954
-0.00434 0.05864 -0.00071 0.00891 0.00754 0.00198 0.01300 0.07746 0.00934 0.00410 -0.00216 -0.01451 0.01408 0.00312 0.01872 0.01826 0.00870 0.00493 0.00532 0.00082 0.01502 0.04653 0.13503 0.03005 0.00813 -0.00489 0.00744 0.00754 0.00887 0.00193 0.00553 0.00501 0.07567 0.04530 0.03050 -0.01872 -0.05657 -0.00126 0.00943 0.00180 0.00500 0.02252 0.00947 -0.00403 0.01076 0.00212 0.00244 0.01008 -0.00323 0.00878
0.01048 0.00414 0.01137 0.00631 0.00030 -0.01638 0.01856 -0.01020 -0.00754 0.01972 0.00909 -0.01838 0.01033 0.01179 -0.01622 -0.00347 0.00125 0.00638 -0.01290 -0.02113 0.01236 0.01368 0.01131 -0.00165 0.01020 0.02694 0.01383 0.00655 0.01746 0.00013 0.01211 0.01267 0.01688 -0.00024 -0.01892 0.00183 -0.00534 0.01069 -0.00009 0.00525 0.00636 0.01881 0.00968 -0.00821 0.00865 -0.00633 0.00541 -0.01174 0.00943 0.00308
-0.00909 0.00142 0.00116 0.00192 -0.00865 -0.00914 -0.00407 -0.00344 -0.00919 0.00015 0.00666 0.00214 -0.00118 0.00058 -0.00386 -0.00460 -0.01132 -0.01527 -0.00719 -0.01497 -0.00675 -0.00674 -0.00437 -0.01262 -0.01122 0.00247 -0.00526 0.00125 -0.01521 -0.00682 -0.00942 -0.00282 0.00077 -0.01505 -0.00530 -0.00797 -0.00786 0.00284 -0.00396 -0.00069 -0.01597 -0.00795 0.00905 -0.00027 -0.00621 -0.00331 -0.00798 -0.01260 0.00847 -0.00239
-0.01194 0.00007 -0.00984 -0.00826 -0.00754 -0.01352 -0.01794 -0.00466 -0.00713 0.00331 0.00870 -0.01368 -0.00513 -0.00289 -0.00618 0.00039 -0.00122 -0.01040 -0.00972 -0.00329 -0.00501 0.00238 -0.00458 -0.01594 -0.01279 -0.01097 -0.01357 -0.00676 -0.00953 0.00252 -0.00791 -0.00792 -0.00749 0.00182 -0.00916 0.00200 0.00122 -0.00691 -0.01002 -0.00105 -0.01627 -0.01321 -0.00896 -0.00164 -0.00322 0.00014 0.00090 0.00245 0.00050 0.00648
-0.05104 -0.10290 -0.00468 -0.06364 -0.03153 -0.02673 0.08069 -0.08724 -0.00856 -0.00993 -0.00896 0.00343 -0.06092 0.26969 0.02932 -0.00999 0.02970 0.08775 -0.05014 0.00143 0.00224 -0.05885 -0.10461 0.00087 -0.05311 0.13274 -0.02961 -0.00752 0.15888 -0.04495 -0.00796 -0.00136 -0.10237 -0.07552 -0.05178 0.15221 -0.15473 -0.00876 -0.05104 -0.07921 0.07284 -0.02919 0.00319 0.01626 0.01772 -0.06520 -0.00435 -0.05121 -0.00875 -0.06513
-0.00828 -0.01940 0.00727 0.00263 -0.00936 -0.01792 0.00267 -0.01583 0.00053 0.00090 -0.00321 -0.00179 -0.00282 -0.00042 -0.00453 0.00173 -0.00269 -0.00170 -0.00286 -0.02221 0.01405 0.00047 -0.02603 -0.02104 0.00572 -0.00811 -0.01577 -0.00182 -0.00694 -0.01008 0.00643 -0.01175 -0.02329 -0.00003 0.00806 0.00714 -0.01678 0.01203 0.00151 0.00556 0.00326 -0.00660 0.00123 -0.01694 -0.00692 -0.00658 -0.00012 -0.02656 -0.00215 -0.01265
-0.01695 -0.09142 -0.00949 -0.01671 -0.05796 -0.08764 -0.05712 0.02800 0.00273 -0.05033 -0.00371 -0.00601 -0.01533 0.00777 -0.02520 -0.00721 -0.04775 -0.03274 -0.05420 -0.04586 -0.00029 -0.01993 -0.10674 0.02719 -0.02396 -0.00441 -0.01017 0.00390 -0.03053 -0.00636 0.00859 -0.04386 -0.09717 -0.00483 -0.05034 -0.02273 -0.02179 -0.00087 -0.00943 -0.02113 -0.02430 -0.07432 0.00785 -0.03630 -0.00396 -0.01902 0.00615 -0.05680 -0.00951 -0.04706
-0.00859 0.06462 -0.00289 -0.00707 -0.04325 0.06384 0.24489 -0.02815 -0.00192 0.02990 -0.00379 0.08194 -0.01071 0.08720 -0.08299 -0.01139 0.06253 0.02714 -0.02159 0.05981 -0.00147 0.02052 0.04974 0.06144 -0.01250 0.06396 -0.00208 -0.00090 0.01867 0.00350 0.00248 -0.04693 0.04113 -0.02702 0.06729 0.07583 0.19449 -0.00749 0.00514 -0.00543 0.00204 0.06661 -0.00637 0.07305 0.05142 -0.00984 -0.01473 0.06634 -0.00291 0.10752
-0.00321 0.00233 0.00838 0.00111 -0.01323 -0.01413 0.01853 -0.03128 0.00909 0.01627 0.00480 0.01866 -0.00252 0.01085 -0.03065 0.00334 -0.00253 0.01088 -0.01577 -0.01674 0.00091 0.00761 0.00247 0.01655 0.01493 -0.02802 -0.01343 0.01469 0.01647 0.00634 0.01013 -0.00407 -0.02459 -0.00998 -0.00810 -0.00152 -0.02575 0.01238 0.00806 0.00741 0.01258 0.00946 0.00844 -0.01001 0.00404 0.00291 0.01085 -0.01497 0.00625 -0.00352
-0.01391 -0.01087 -0.00613 -0.00102 0.00105 0.00080 -0.01809 -0.01445 -0.00634 -0.00006 -0.00775 -0.01075 0.00106 -0.01359 -0.01503 0.00529 -0.00810 -0.00417 -0.00633 -0.01153 -0.00071 -0.00515 -0.00805 0.00011 0.00261 0.00230 -0.01017 -0.01138 -0.00513 -0.01308 -0.00154 -0.00676 -0.00565 -0.00164 -0.01112 -0.01481 -0.00407 0.00160 -0.01320 0.00299 -0.01491 -0.01229 -0.00617 -0.00211 0.00384 -0.00604 0.00160 -0.00314 -0.01287 0.00199
-0.00990 0.00167 -0.00391 0.00338 0.00265 -0.00352 -0.00020 -0.00196 -0.00921 -0.00838 -0.00680 -0.01411 -0.01472 -0.01405 -0.00812 0.00311 0.00094 -0.00538 -0.00494 -0.01244 0.00362 -0.01617 0.00140 -0.00533 0.00281 -0.00895 -0.00232 -0.00476 -0.01112 -0.01531 0.00215 -0.01565 -0.00026 -0.00608 -0.01264 -0.00607 0.00208 -0.00139 -0.00126 -0.01069 -0.01154 -0.00854 0.00377 0.00199 -0.01558 -0.00329 -0.00612 -0.00014 0.00283 0.01066
-0.00696 0.04548 -0.00739 -0.00380 -0.05085 0.04679 0.16520 -0.03997 -0.00027 0.06814 -0.00535 0.07426 -0.00937 0.17298 -0.06840 -0.00325 0.06552 0.05078 -0.04739 0.06119 0.00119 0.05019 0.04363 0.05274 -0.01173 0.06051 -0.01795 -0.00528 0.06614 -0.00172 0.00032 -0.05109 0.04028 -0.03394 0.06277 0.10126 0.18461 0.00381 -0.00898 -0.01750 0.02678 0.03962 0.00342 0.05368 0.04041 -0.00184 -0.01128 0.04974 -0.02275 0.09503
0.01105 0.06777 -0.00284 0.00819 -0.03392 0.01167 0.01522 0.10231 0.00760 -0.00724 0.00568 -0.00977 0.00768 0.00692 0.03553 0.02843 0.02064 -0.01585 -0.01351 -0.00476 0.01353 0.05512 0.16207 -0.00116 0.01064 -0.06043 0.01147 0.01511 0.00293 0.00075 0.00304 -0.02669 0.09625 0.05591 0.02867 -0.01612 -0.06674 0.00196 0.00384 0.01283 0.01957 0.01570 0.00791 -0.02211 0.02060 0.01969 -0.00220 0.00138 0.00258 0.00974
0.00801 -0.00060 0.00834 -0.00973 -0.01871 -0.00580 -0.00199 -0.00536 0.00090 -0.00460 0.00284 0.00860 -0.00053 0.00084 -0.01178 0.00359 0.00179 -0.00600 -0.01677 -0.00324 0.00516 0.00103 -0.00878 -0.00432 -0.02107 0.00509 -0.00066 -0.00327 -0.00998 -0.00322 0.00379 -0.00617 -0.00238 -0.02188 0.00425 0.00414 0.00214 -0.00623 0.00853 0.00473 -0.00840 0.00744 0.00233 -0.00850 0.00199 -0.00852 -0.00294 0.00723 -0.01629 -0.00244
-0.00871 0.00649 0.01280 0.00462 -0.00382 -0.03393 0.00435 -0.00400 -0.00031 0.00182 0.00148 0.00393 -0.00779 0.00299 -0.02452 -0.00219 0.01126 -0.00289 -0.00869 -0.00600 -0.00296 -0.00152 -0.00990 -0.01458 -0.00823 -0.00999 -0.00719 0.00446 0.01170 0.00621 0.00702 0.00247 -0.02482 -0.00102 -0.00650 -0.00675 -0.00457 0.01043 0.00189 0.00709 0.00530 0.00198 0.01031 0.00054 -0.00400 -0.00691 0.00813 0.00325 0.00718 -0.00025
-0.01665 0.03985 -0.00269 -0.01046 -0.02821 0.01494 0.20920 -0.01752 0.00751 0.00044 0.00423 0.04443 -0.01266 0.02665 -0.07712 -0.01274 0.02731 -0.00922 -0.02969 0.04815 -0.00459 -0.00471 0.04031 0.02561 -0.02773 0.06005 -0.01275 -0.00052 0.01017 -0.02748 -0.01457 -0.02176 0.02077 -0.02580 0.05112 0.05673 0.17736 -0.00927 -0.02007 -0.00976 -0.00032 0.05879 -0.00490 0.05993 0.06970 -0.01849 -0.00272 0.05504 -0.02121 0.10179
-0.00186 0.02343 0.00781 -0.00761 -0.02489 0.00229 0.01142 0.08119 0.00839 -0.00205 -0.00496 0.00509 -0.01233 -0.00502 -0.00913 0.03654 -0.01660 0.00290 -0.02370 -0.00436 0.01168 0.02139 0.16296 -0.00432 -0.00130 -0.05814 -0.00162 0.00447 -0.00110 -0.00312 -0.00208 -0.01962 0.04774 0.03446 0.00831 0.00125 -0.00311 0.00015 -0.02107 -0.01826 0.01703 -0.01041 0.01232 -0.06233 0.00112 -0.01742 0.01290 -0.00398 -0.00193 0.01053
0.00497 -0.00076 0.00119 0.00316 -0.00250 0.00435 -0.00908 -0.00258 0.00205 -0.01236 -0.00149 -0.00800 0.00077 0.00066 -0.00493 -0.00517 -0.01389 -0.01020 -0.01106 0.00135 -0.00073 -0.01121 0.00090 -0.00215 -0.00103 -0.00105 0.00325 -0.00671 -0.00200 0.00713 -0.00203 -0.00562 -0.00879 -0.01217 -0.01272 -0.00964 0.00348 -0.00952 0.00001 -0.00860 -0.00519 -0.00395 0.00202 0.00079 0.00031 -0.00697 0.00775 0.00308 -0.01167 -0.00421
-0.01157 0.03774 0.00782 -0.01696 -0.06543 0.04192 0.15242 -0.01999 -0.00987 0.05804 0.00382 0.06478 -0.01438 0.15287 -0.06074 -0.00394 0.05006 0.05660 -0.04751 0.05315 -0.00372 0.02761 0.03110 0.03757 -0.00341 0.05691 -0.00446 -0.00493 0.06328 0.00064 -0.01093 -0.06015 0.03755 -0.04300 0.04240 0.08548 0.16516 0.00178 -0.00419 -0.01261 0.03673 0.03657 -0.00844 0.05250 0.05701 -0.02158 -0.00991 0.04028 -0.01355 0.07320
-0.01206 -0.01475 -0.00725 -0.00050 0.00253 0.00002 -0.01143 -0.00059 -0.00144 -0.00015 -0.00070 -0.01072 0.00110 -0.00507 -0.00585 -0.00203 -0.00683 -0.00870 -0.00535 -0.01201 -0.00032 0.00084 0.00373 -0.01095 -0.01310 -0.00508 -0.00898 -0.00633 -0.00230 0.00276 -0.01224 -0.00780 -0.00458 -0.00857 0.00275 0.00131 -0.02916 -0.00177 -0.00100 -0.00750 -0.00617 -0.00225 -0.00880 0.00104 -0.01250 -0.01468 -0.00333 -0.01488 -0.00164 -0.00415
-0.00222 -0.01062 0.00067 0.00119 -0.01785 -0.00653 0.00035 -0.00213 0.00416 -0.00195 0.00093 -0.01328 -0.00335 -0.01098 -0.00195 0.00627 0.00125 -0.00252 -0.02495 -0.01062 -0.01479 -0.00462 0.00340 -0.02810 -0.00649 -0.00476 -0.00165 -0.00387 -0.01196 0.00185 -0.00202 -0.01950 0.00675 -0.01560 -0.00089 -0.00660 -0.00614 -0.00313 -0.00523 -0.00831 0.00117 -0.00838 -0.00450 0.00345 -0.00555 -0.00256 -0.00488 -0.01113 -0.01255 0.00695
-0.00258 -0.00178 0.00737 -0.00194 -0.00640 -0.00764 -0.01582 -0.01116 0.00500 -0.01530 0.00623 -0.00394 -0.00906 0.00290 -0.01452 -0.00392 0.00018 -0.00080 -0.00078 -0.01488 -0.00048 -0.00710 -0.00867 0.00202 -0.00744 0.00191 -0.00257 -0.00778 -0.01246 0.00782 -0.00388 -0.00871 -0.00804 -0.00995 0.00053 0.00133 0.00425 -0.00565 -0.00925 0.00060 -0.00783 -0.00140 -0.00057 -0.00017 -0.01036 -0.01223 -0.00597 -0.01338 -0.01344 -0.00190
0.00051 0.00832 -0.00380 -0.00323 -0.01443 -0.02684 0.01534 -0.00183 0.00174 0.01715 0.00983 0.02340 -0.00224 0.01115 -0.02668 -0.01703 0.01288 0.00728 -0.00484 -0.00665 -0.00073 0.01258 -0.00515 0.00131 -0.00209 -0.05345 -0.00616 -0.00017 0.01804 -0.00142 0.00890 0.00287 -0.02248 0.00869 -0.00614 0.00578 -0.02050 0.00460 0.01427 0.01245 0.00751 0.00577 0.01015 -0.01130 0.00454 0.00571 -0.00329 -0.00559 0.00802 0.00982
-0.01223 0.05573 -0.01039 -0.00736 -0.05080 0.02922 0.23706 -0.03953 -0.00666 0.03780 0.00068 0.08833 -0.01266 0.10709 -0.07409 -0.01884 0.07631 0.00754 -0.04025 0.05065 -0.00892 0.01404 0.04231 0.05294 -0.00380 0.09380 -0.01271 -0.00707 0.01789 -0.00131 -0.00952 -0.05466 0.02472 -0.03337 0.07279 0.08755 0.19429 -0.01476 -0.00485 -0.00024 0.00575 0.06867 0.00098 0.05440 0.07261 -0.00978 -0.01299 0.04717 -0.02512 0.11875
-0.00443 0.04151 -0.00749 0.00524 -0.02917 0.04819 0.15512 -0.03505 -0.00556 0.07558 -0.00271 0.06978 -0.01072 0.16938 -0.05191 -0.00332 0.04903 0.06698 -0.01750 0.04613 0.01220 0.03887 0.04100 0.05375 -0.00325 0.07325 -0.00819 0.00200 0.05679 -0.01329 -0.01110 -0.03541 0.03138 -0.04191 0.05311 0.08430 0.18256 -0.01103 -0.01107 -0.01580 0.03501 0.04530 -0.00352 0.04897 0.05932 -0.01522 -0.00174 0.04127 -0.01253 0.08919
0.00876 -0.00414 0.00995 -0.00206 0.00027 0.00891 -0.00089 -0.01306 0.00382 -0.00279 0.00415 -0.00544 -0.00244 -0.00774 -0.00428 -0.00554 0.00256 -0.00418 -0.01370 -0.00762 0.00324 -0.01332 -0.00434 -0.01511 -0.00379 -0.01062 -0.00809 0.00345 -0.00174 -0.00808 0.00857 0.00380 -0.00974 -0.01206 0.00358 -0.00524 -0.00481 0.00239 -0.00753 0.00121 -0.00606 -0.00362 0.00707 -0.01323 -0.00662 -0.00881 0.00101 0.00685 0.00328 0.00808
0.01399 -0.00240 0.00520 0.00003 -0.01181 -0.03335 0.00705 -0.01816 0.00079 0.01944 0.00522 -0.02541 0.00890 0.01501 -0.02905 -0.00964 0.00037 0.01376 -0.00202 -0.01195 0.00918 0.01137 -0.01557 -0.00745 0.00094 -0.02413 -0.01089 0.00182 0.00537 0.00938 0.01414 0.00837 -0.02284 0.00912 -0.01375 0.00867 0.00312 -0.00021 -0.00337 0.00195 0.01669 0.00343 0.00719 -0.02109 -0.00153 0.00747 0.01492 0.00283 -0.00831 0.00277
-0.05940 -0.05944 0.00422 -0.06888 -0.03608 0.02463 0.03841 -0.10964 -0.00319 -0.02498 -0.00196 0.10204 -0.06043 0.19667 0.10858 -0.02798 0.02153 0.10726 -0.03698 0.01422 -0.00168 -0.02305 -0.07185 0.05346 -0.06835 0.02446 -0.00380 0.00885 0.09869 -0.04566 0.00248 -0.02818 -0.08158 -0.14346 -0.02345 0.07681 0.01655 -0.00010 -0.05812 -0.04652 0.03972 0.01528 -0.00627 0.03341 0.01037 -0.05565 0.00028 -0.00104 -0.01765 -0.01264
-0.00441 -0.00567 0.01438 0.00328 0.00019 -0.00514 0.01631 -0.01020 -0.00546 0.00692 0.00353 -0.01779 -0.00247 0.01270 -0.02812 -0.00230 -0.00853 0.00867 0.00119 0.00186 0.00334 -0.00288 -0.00351 -0.01210 0.00720 -0.02028 0.00674 -0.00167 0.01019 0.00348 0.00442 -0.01032 -0.01151 0.00811 -0.00302 0.00189 0.00162 -0.00326 0.00550 -0.00342 0.00616 0.00559 0.01418 -0.01258 -0.00848 0.00869 0.00504 -0.00683 -0.00118 -0.00845
0.00082 -0.01240 0.01477 0.00027 -0.00390 -0.03248 0.01441 -0.01084 0.00665 0.01550 -0.00993 -0.01265 0.00256 0.01242 -0.02780 0.00775 -0.00152 0.00838 -0.00799 -0.00308 0.01127 0.01011 -0.00869 -0.00802 0.00214 -0.04938 0.00137 0.01467 0.01097 0.01076 0.00575 0.00759 -0.02597 0.00821 -0.00362 0.00270 -0.00048 0.00147 0.00288 0.00672 0.01319 0.01004 -0.00384 -0.02099 -0.00571 0.01148 0.00625 0.00036 0.00531 -0.00378
0.00551 -0.00154 0.01298 -0.00029 -0.00499 0.01198 0.01287 -0.00486 0.00457 0.01983 -0.00111 0.02096 0.00467 0.01190 -0.02195 0.00898 -0.00011 -0.00296 -0.00553 0.00495 0.00885 -0.00147 0.00330 0.00412 0.01347 -0.04837 0.00478 0.00823 0.00851 0.01221 0.00526 0.00669 0.00147 0.00186 0.01320 0.00253 -0.00358 0.00459 0.00043 -0.00259 0.01297 -0.00132 0.01414 -0.03218 -0.01086 -0.00425 -0.00366 -0.00661 0.00657 0.00750
0.00279 -0.00660 0.01225 0.00779 -0.00501 -0.01487 0.01964 -0.02040 0.00364 0.01487 0.00231 0.02822 0.01012 0.02101 -0.01891 0.00457 0.00110 0.00577 0.00282 -0.00795 0.00658 0.01514 0.00388 -0.00061 0.00023 -0.00555 -0.00988 0.01036 0.01034 0.00209 0.00860 0.00379 -0.01574 -0.00133 0.00185 0.00029 -0.02437 -0.00095 0.01293 -0.00441 0.01843 -0.00227 0.00284 -0.01366 -0.00752 0.01142 0.00925 -0.01270 0.00911 0.01564
0.00243 -0.00696 0.01555 0.00670 0.00651 0.00594 0.03016 -0.01358 0.00843 0.00480 0.00019 0.03068 0.01012 0.01026 -0.02256 -0.00295 0.00483 0.00147 0.01357 -0.00438 0.01576 0.00360 0.00668 0.00343 0.01579 -0.01008 -0.00858 -0.00005 0.00288 -0.00009 0.01619 0.01222 0.00960 0.00341 0.00500 0.01434 -0.00319 0.01072 -0.00185 0.00009 0.02100 0.00217 0.00707 0.00332 -0.00379 0.00862 0.00810 -0.01190 0.00833 0.00302
0.00658 -0.01072 0.01580 0.01324 -0.00459 -0.01296 0.00767 -0.01068 -0.00629 0.01659 0.00754 -0.00358 0.00345 0.00562 -0.03698 -0.00622 0.00200 0.00137 0.00032 -0.00709 -0.00320 -0.00331 -0.00705 -0.01153 -0.00526 -0.00520 0.00032 0.00813 0.00888 0.00380 0.00912 -0.00682 -0.00782 0.01062 0.00724 -0.00392 -0.00959 0.00971 0.00416 0.00754 0.00310 -0.00438 0.00351 0.00049 -0.00083 -0.00016 0.00558 -0.00893 0.00568 -0.00472
-0.01055 -0.00628 0.00132 -0.00796 -0.04986 0.02854 0.06218 -0.08003 -0.00342 0.02350 -0.00136 0.06895 -0.02099 0.11590 -0.08357 -0.00452 0.04791 0.04879 -0.03819 0.02812 -0.00369 0.03085 -0.01202 0.03543 0.00058 0.04019 -0.01477 -0.00737 0.06866 -0.00145 -0.00641 -0.01512 0.01381 -0.04507 0.01581 0.12039 0.16745 -0.01235 -0.01852 -0.02358 0.01593 0.00183 -0.00888 0.01479 0.03933 -0.01723 -0.00895 0.01029 -0.01427 0.03185
0.03326 0.06279 0.01207 0.03231 0.02391 0.00737 0.00909 0.11926 -0.00082 -0.00584 -0.00429 0.00465 0.02526 -0.00902 0.05016 0.03272 0.03846 -0.00793 0.02638 0.00748 -0.00142 0.05675 0.20150 0.02755 0.02369 -0.03227 -0.00658 0.01188 0.00019 0.00014 0.01036 0.00518 0.09898 0.06239 0.04556 -0.01913 -0.02411 0.00269 0.02757 0.03263 0.01303 0.01470 0.00793 0.00173 -0.00640 0.02404 0.00795 0.00552 0.01009 0.00395
-0.00356 0.02835 0.00243 -0.01587 -0.04760 0.03950 0.19116 -0.02478 -0.00620 0.07574 -0.00068 0.07345 -0.01849 0.16345 -0.05294 0.00032 0.03337 0.07268 -0.03775 0.04433 0.01712 0.03647 0.02903 0.03869 -0.01106 0.04843 -0.00520 -0.00118 0.06288 -0.00960 -0.00468 -0.05127 0.02887 -0.05909 0.03449 0.08148 0.19509 0.00869 -0.01173 -0.00714 0.03845 0.03939 0.00834 0.03257 0.04829 -0.01360 0.00406 0.03381 -0.00995 0.07542
0.01091 -0.00406 -0.00258 0.00722 0.00334 -0.00298 0.02311 -0.01604 0.00407 0.02076 0.00541 0.01708 0.00240 0.00721 -0.02480 -0.00752 0.01126 0.00822 0.00319 -0.00881 0.00509 0.00181 0.01159 -0.00147 0.00786 0.01576 0.00930 0.00022 0.00164 -0.00354 0.01434 0.01286 0.00687 0.00383 0.00664 0.01505 -0.01483 0.00544 0.00413 -0.00585 0.02145 -0.00129 0.00645 0.01731 -0.00928 0.01234 -0.00334 0.00345 0.01123 0.01695
-0.00407 -0.01475 0.00540 -0.00258 -0.00625 -0.02565 0.00189 -0.02467 -0.00975 -0.01415 -0.00687 0.00996 -0.00663 0.00141 -0.03201 0.00293 0.00014 0.00282 -0.00665 -0.02484 -0.00282 -0.01885 -0.01354 0.00270 0.00589 -0.01247 -0.00706 -0.00484 -0.00100 -0.00744 -0.00069 -0.00638 -0.01004 -0.03169 -0.00313 0.02280 -0.02796 -0.00407 -0.00803 -0.00407 -0.01835 -0.01614 -0.00958 -0.02668 0.01210 0.00785 -0.00535 -0.01762 0.00588 -0.01324
-0.04263 -0.09078 -0.00800 -0.03248 -0.02191 -0.07461 0.01589 -0.05570 -0.00436 -0.06506 -0.00829 0.00287 -0.03553 0.07150 0.04147 0.00068 0.05656 0.00528 -0.04501 -0.06243 0.00386 -0.05419 -0.06390 -0.00463 -0.03912 -0.04807 -0.01356 -0.00382 0.00332 -0.03654 -0.00500 -0.01301 -0.06479 -0.07547 -0.06669 0.02896 -0.04273 -0.01347 -0.04335 -0.05393 -0.00046 -0.04000 0.00287 -0.03030 -0.01238 -0.04872 0.00725 -0.06723 -0.01441 -0.08473
0.00201 -0.00545 -0.00959 -0.00237 -0.00803 -0.00574 -0.00543 -0.01281 0.00024 -0.00317 0.00135 0.00245 0.00021 0.00529 -0.00938 -0.00052 0.00014 0.00215 -0.01349 0.00289 0.00539 -0.00253 0.00557 -0.00943 0.00956 0.00465 -0.01387 0.00744 0.01249 0.00660 -0.00134 -0.00887 -0.00191 -0.01427 0.00162 -0.00376 0.00183 0.00077 -0.00884 -0.00831 -0.01101 -0.00418 0.00389 0.00441 -0.00957 0.00579 0.00388 -0.00377 -0.01433 -0.01037
-0.00072 0.02109 0.00647 -0.00924 -0.01990 0.01638 0.01472 -0.03554 -0.00867 0.00022 -0.00542 0.05920 -0.01668 0.02402 -0.04831 -0.00957 0.03413 0.03250 -0.01057 0.02964 0.00995 0.02722 0.01736 0.04629 0.00162 0.03201 -0.01011 -0.00379 0.02518 0.00136 0.00013 -0.00849 0.00865 0.00064 0.02847 0.05107 0.13960 0.00524 -0.00754 -0.00727 0.02487 0.01536 -0.00885 0.02183 0.02482 -0.01802 0.00305 0.02812 0.00046 0.02424
0.00340 -0.01153 0.00563 0.00787 -0.00830 -0.00025 -0.00411 -0.00515 -0.00953 -0.01312 -0.00095 -0.01648 -0.00698 -0.00846 -0.00269 -0.00369 0.00264 -0.01316 -0.01171 -0.01102 -0.01097 -0.01712 -0.02016 -0.01560 -0.00860 -0.00671 0.00364 0.00871 -0.01508 -0.00073 -0.00598 -0.01252 -0.02439 -0.00692 -0.01719 0.00289 0.00790 -0.00069 0.00105 0.00197 -0.00963 -0.01463 0.00001 -0.00703 0.00163 -0.00502 0.00943 -0.02098 0.00339 0.01030
-0.08246 -0.06532 -0.00270 -0.10040 -0.03360 -0.03803 0.16243 -0.08138 0.00136 0.01517 0.00881 0.09077 -0.08664 0.26318 0.03138 0.00556 -0.00750 0.05267 -0.02654 -0.02152 -0.00615 -0.02635 -0.05537 0.04831 -0.05203 0.00552 -0.01241 0.00688 0.15681 -0.02248 -0.00077 -0.01135 -0.05550 -0.09047 -0.05254 0.12129 0.01901 -0.00222 -0.06564 -0.07874 -0.01124 0.00982 0.00589 -0.07722 0.05693 -0.08639 0.00607 -0.05134 -0.02142 0.03231
0.00737 -0.00040 0.00591 -0.00709 -0.02434 -0.01543 -0.00008 -0.03249 0.00294 -0.01130 0.00789 0.00208 0.00144 0.00409 -0.01787 -0.00939 -0.00288 -0.01004 -0.02718 -0.01238 0.00395 -0.01591 -0.00337 -0.00705 -0.00407 -0.03012 -0.00351 -0.00557 -0.01099 0.00285 0.00133 -0.03593 -0.01575 -0.04123 -0.00918 0.00684 0.01560 -0.00451 0.00668 -0.00041 -0.00865 -0.00200 -0.00271 -0.00348 0.00310 0.00062 -0.00738 0.00053 -0.00604 -0.00010
-0.00533 -0.01689 0.01098 -0.00204 -0.00982 -0.00275 -0.01344 -0.00809 -0.00634 -0.00522 0.00501 -0.00510 0.00280 -0.00654 -0.00306 0.00406 0.00629 0.01108 0.00468 -0.01510 0.01148 -0.00481 -0.00975 -0.00193 -0.00527 -0.01149 0.01087 0.01398 0.00092 -0.00882 -0.01129 -0.00903 -0.00177 0.00311 -0.02106 0.00586 -0.02227 0.01326 -0.00027 -0.00572 -0.01284 -0.02033 0.01129 -0.01519 -0.01460 -0.00563 0.01376 -0.00792 -0.00428 -0.01311
0.01302 -0.00309 0.00451 0.00621 -0.01177 0.00928 0.01028 0.00070 -0.00479 0.00127 -0.00188 0.02679 0.00198 0.00116 -0.02522 -0.00937 0.00383 0.01318 -0.00204 -0.00637 0.00336 -0.00558 -0.00609 0.00375 0.00343 -0.02959 0.00367 0.00427 0.00779 0.00374 0.01632 -0.00057 0.01759 0.00729 0.00443 0.00986 -0.06156 0.00347 -0.00427 0.00144 0.00257 0.00157 -0.00014 -0.00214 0.00071 0.00259 0.01477 -0.00339 -0.00561 0.01362
-0.01144 0.00044 0.00176 -0.00376 -0.00337 -0.00333 -0.01375 0.00174 -0.00408 -0.00454 0.00354 -0.01066 -0.00324 -0.00104 -0.00201 0.00142 -0.01504 0.00354 -0.01450 -0.01534 0.00285 -0.00836 0.00304 -0.01175 -0.00516 -0.00935 -0.00634 0.00158 -0.01421 -0.00803 -0.01114 -0.00769 -0.00413 -0.01278 -0.00045 -0.00101 0.00028 -0.01135 -0.00748 -0.01537 -0.00038 -0.01538 -0.00158 -0.00062 0.00247 -0.01204 -0.00750 0.00314 0.00051 -0.01409
0.01191 0.01941 0.00678 -0.00596 -0.00182 0.00311 0.00692 0.00303 0.00524 0.01255 0.00190 -0.00832 -0.00073 0.01509 -0.01960 -0.00626 -0.00128 0.00481 -0.01467 -0.01147 0.01137 -0.00005 0.00069 0.00867 -0.00342 -0.01447 -0.00096 0.00176 -0.00008 0.01132 0.00903 -0.00017 0.02495 -0.00848 -0.00647 -0.00381 -0.06553 -0.00346 0.00923 -0.00665 0.00928 0.00973 -0.00247 -0.00998 0.00867 0.00546 -0.00007 -0.00558 0.00635 0.01015
-0.00778 0.06281 -0.00469 -0.01169 -0.02419 0.04990 0.25173 -0.03448 -0.00492 0.03919 -0.00649 0.04912 -0.02577 0.06477 -0.07258 -0.00845 0.07770 0.02272 -0.03069 0.06250 0.00369 0.02960 0.05091 0.02323 -0.01031 0.06412 -0.02032 -0.01280 0.01819 -0.02485 -0.01510 -0.02157 0.05275 -0.03100 0.06355 0.07316 0.17523 -0.00977 -0.02445 -0.01289 0.01554 0.05452 0.00172 0.06376 0.06101 -0.01616 -0.01339 0.06478 -0.02240 0.10054
-0.01298 0.03718 -0.00621 0.00294 -0.02290 0.04587 0.18827 -0.03355 -0.00858 0.08080 -0.00427 0.07942 -0.01499 0.18688 -0.07385 -0.01342 0.05416 0.05726 -0.00895 0.04852 -0.00275 0.04551 0.04127 0.06660 -0.00189 0.08710 -0.01115 -0.00039 0.07668 -0.01678 -0.00375 -0.03345 0.04589 -0.04166 0.04778 0.10039 0.18520 -0.01304 -0.00001 -0.01489 0.04157 0.03507 -0.00787 0.04095 0.05016 -0.01298 -0.01328 0.04425 -0.00529 0.09037
-0.08499 0.00356 0.00030 -0.07454 -0.03180 -0.00262 -0.00124 -0.11473 0.00809 0.07966 -0.00159 0.11233 -0.06699 0.03629 0.00529 -0.00721 0.12834 0.06668 -0.05978 0.01057 -0.00881 0.02109 0.00313 0.08692 -0.07012 0.00716 -0.01494 0.00943 0.14547 -0.06296 -0.01035 -0.00852 -0.01092 -0.06647 0.02881 -0.00558 0.04286 -0.01361 -0.07148 -0.09108 0.10244 0.07079 -0.00819 -0.01120 -0.01907 -0.07969 0.00660 0.04265 -0.02701 0.02834
