0.05475 0.04138 0.01032 0.04404 -0.00828 0.05638 0.00594 0.02925 0.00156 0.04180 0.14186 -0.00675 -0.00535 0.02814 -0.00675 -0.00425 0.00638 0.00748 -0.02885 0.00966 0.06460 0.02220 0.00242 -0.00630 -0.04709 0.07324 -0.00049 0.08063 -0.00550 0.34419 0.11215 0.01746 -0.00040 0.00121 0.01598 0.08494 0.00459 0.01049 -0.00731 0.03127 0.00486 0.06990 0.00063 0.02583 0.07850 -0.01284 0.00192 0.04871 -0.00957 -0.00578 0.00155 -0.01310 0.04457 -0.00886 0.00675 0.06613 0.01257 0.00345 -0.00662 0.07155 -0.01610 0.00334 0.01016 0.03726 -0.01639 -0.00059 0.06772 0.00034 -0.00375 0.00376 0.00265 0.06986 0.06801 -0.00090 -0.00260 0.13769 0.00718 -0.00732 0.00158 0.00042 -0.00477 -0.00241 0.06637 -0.03738 0.07309 -0.00386 0.02818 -0.00557 -0.00716 0.01844 -0.00269 0.15258 -0.00738 -0.01102 0.00486 -0.00256 0.00059 0.08059 0.07076 0.03567
-0.05857 -0.04227 -0.02106 -0.05449 0.00624 -0.06212 0.00664 -0.03500 0.01170 -0.05479 -0.14921 -0.00158 -0.00732 -0.02731 -0.00564 0.00706 0.00205 0.00091 0.01503 0.00318 -0.06232 -0.02818 -0.00590 -0.00043 0.03822 -0.06244 -0.01345 -0.09005 -0.00817 -0.33807 -0.09574 -0.01528 0.00001 0.00975 -0.02421 -0.07780 -0.00316 -0.01251 -0.00497 -0.03225 -0.00156 -0.07102 -0.00032 -0.01176 -0.08131 -0.00242 -0.00351 -0.05073 0.00902 -0.00383 -0.00504 -0.00301 -0.05006 -0.00440 -0.02233 -0.07276 -0.00396 0.01514 -0.00065 -0.06951 0.01994 -0.00622 0.00606 -0.03784 0.02202 -0.00954 -0.07022 0.00964 0.00542 0.00191 0.00003 -0.06577 -0.06617 -0.00287 0.00510 -0.12928 -0.00364 -0.00414 0.00200 -0.00440 0.00480 -0.01200 -0.06600 0.03217 -0.06861 0.00284 -0.02132 0.00463 0.01788 -0.01700 -0.01470 -0.14685 0.00858 -0.00594 -0.01149 -0.00973 -0.00171 -0.07285 -0.07734 -0.02677
