-0.07129 -0.53003 -0.35646 -0.14660 -0.16897 -0.23321 0.20957 -0.21513 0.00676 -0.09984 -0.42841 -0.27223 0.15670 -0.48676 -0.37537 -0.03728 -0.07060 -0.59026 0.03390 0.03871 -0.25896 -0.53132 -0.25636 -0.18938 -0.10396 -1.06565 -0.09902 0.54675 -1.79427 0.16398 -1.20422 -0.87072 -0.65275 -0.23073 -0.39300 0.01479 -0.00872 -0.23273 -0.57216 -0.58088 -0.58137 -0.57471 0.58094 0.58803 -0.58208 -0.57547 0.54975 0.56634 -0.57466 0.55053 0.56831 -0.55852 0.57747 0.54008
0.31504 0.05590 0.18050 -0.07114 0.09375 0.04324 -0.03441 0.39587 0.15662 -0.09118 0.05118 0.40652 -0.19351 0.43114 0.01540 0.06368 0.03740 0.49264 -0.25244 -0.13939 0.41900 0.37942 0.46467 0.58328 0.26813 0.22404 0.01901 -0.16339 0.35144 -0.54153 0.39548 0.34408 0.36756 0.00671 -0.01854 -0.00556 -0.01745 -0.00261 0.15576 0.16259 0.14990 0.16314 -0.15868 -0.16190 0.16092 0.16521 -0.13036 -0.13619 0.12696 -0.12873 -0.12619 0.11293 -0.11293 -0.11986
0.01482 0.00217 -0.01004 0.00327 -0.00497 0.00204 -0.00852 -0.00771 0.00574 0.00621 -0.01347 0.00366 -0.00289 0.00157 0.01195 0.00273 0.00255 -0.00526 -0.00911 -0.00692 0.00048 0.00137 -0.00287 0.00524 -0.00909 0.00118 0.00983 0.00898 -0.00894 0.00035 -0.00515 0.00724 0.00103 -0.00553 -0.01070 -0.00396 -0.00226 -0.00600 0.00604 0.00856 0.00436 -0.01028 -0.00237 0.00455 -0.01009 -0.00311 0.00592 -0.00666 -0.00335 -0.00322 0.00153 0.00829 -0.00901 -0.00197
-0.07939 -0.54605 -0.36569 -0.13772 -0.16909 -0.20098 0.22403 -0.21093 -0.00298 -0.09327 -0.43509 -0.26365 0.14746 -0.48391 -0.38155 -0.02875 -0.08224 -0.56676 0.02778 0.05303 -0.25526 -0.51492 -0.24285 -0.18757 -0.09895 -1.11378 -0.08893 0.56609 -1.79342 0.16093 -1.22135 -0.88018 -0.65195 -0.24857 -0.39486 0.01486 -0.00361 -0.24204 -0.59950 -0.59401 -0.59635 -0.59279 0.59121 0.60679 -0.59616 -0.59848 0.58388 0.57765 -0.59764 0.56903 0.58680 -0.58005 0.59219 0.56268
-0.04202 -0.32420 -0.21364 -0.11038 -0.17401 -0.24882 0.26104 -0.13919 -0.00768 -0.05587 -0.33370 -0.26666 0.15516 -0.34230 -0.24430 -0.08988 -0.04403 -0.42627 0.14506 0.09205 -0.21965 -0.15794 -0.17879 -0.08251 -0.10573 -0.77296 0.03772 0.49371 -1.15174 0.18240 -0.72824 -0.61026 -0.38789 -0.14319 -0.22062 0.01166 0.03784 -0.11819 -0.40129 -0.41011 -0.41699 -0.41144 0.40913 0.41099 -0.41432 -0.42474 0.47878 0.46701 -0.48998 0.46719 0.48665 -0.48367 0.49837 0.47219
0.25139 0.07045 0.16751 -0.06525 0.11980 0.04643 -0.02117 0.41337 0.15222 -0.02785 0.07451 0.39956 -0.13087 0.41647 0.01117 0.02004 0.02713 0.47537 -0.36040 -0.17710 0.40380 0.37846 0.46491 0.59606 0.28123 0.22395 0.03115 -0.12906 0.34034 -0.55429 0.39627 0.35513 0.37017 0.00305 -0.00587 -0.01270 -0.01215 -0.00965 0.15992 0.17607 0.17407 0.15823 -0.17475 -0.18025 0.16094 0.17539 -0.14490 -0.16912 0.15322 -0.15501 -0.15311 0.12603 -0.14554 -0.14497
0.17334 0.08373 0.32159 0.03957 0.07506 0.24123 0.15122 0.08764 0.19520 -0.17830 0.21728 0.29816 -0.08938 0.31567 0.19024 0.12456 0.07695 0.28141 -0.33547 -0.26959 0.20212 0.51325 0.27379 0.35976 0.26197 0.29079 0.06204 -0.17294 0.35431 -0.50796 0.57057 0.42845 0.36520 -0.04434 0.07827 -0.01556 -0.01220 0.01560 0.23801 0.26755 0.24846 0.24262 -0.27500 -0.26478 0.24856 0.25265 -0.09829 -0.08942 0.07988 -0.09540 -0.08643 0.07514 -0.08149 -0.09020
-0.21773 -0.05651 -0.22950 0.05865 -0.19038 -0.02731 0.07481 -0.41719 -0.17847 0.13759 -0.14828 -0.34193 0.15557 -0.38498 -0.02207 -0.01024 -0.07651 -0.47633 0.39887 0.21208 -0.36190 -0.37979 -0.51301 -0.65768 -0.24519 -0.23486 -0.04090 0.16204 -0.41672 0.63046 -0.54179 -0.40904 -0.33699 0.03222 0.02464 -0.02683 -0.01405 0.04300 -0.16940 -0.16668 -0.16227 -0.16573 0.16492 0.16028 -0.16186 -0.16913 0.11233 0.10373 -0.09540 0.09072 0.10719 -0.10077 0.08124 0.08966
0.00421 0.00760 -0.00591 0.00982 -0.00019 -0.00809 -0.00927 0.00561 -0.00369 0.00185 0.00115 -0.00530 0.00737 0.00930 -0.00713 0.00890 -0.00104 0.00697 0.00318 -0.00055 0.00323 0.00683 0.00677 -0.00738 0.00065 -0.00383 -0.00921 -0.00074 -0.00809 0.00484 0.00598 -0.00028 -0.00195 -0.00726 0.00365 -0.00313 0.00004 -0.00351 -0.00206 -0.00399 0.00572 -0.00669 0.00903 -0.00170 -0.00484 -0.00104 0.00040 0.00550 0.00736 0.00593 -0.00081 0.00045 -0.00780 -0.00079
0.08833 0.11830 0.15874 -0.02356 0.21160 0.06759 0.03009 0.44376 0.08070 0.05392 0.04947 0.39527 -0.11193 0.45965 -0.02606 0.01465 0.00271 0.48532 -0.40854 -0.21379 0.42440 0.33333 0.51209 0.65403 0.23512 0.24579 0.02502 -0.16941 0.35144 -0.58247 0.46821 0.41654 0.39684 0.01319 0.00112 -0.00160 -0.00976 -0.02611 0.17752 0.17300 0.18061 0.18062 -0.18397 -0.19463 0.17731 0.17166 -0.12545 -0.13181 0.13416 -0.13014 -0.11659 0.12186 -0.13460 -0.12224
-0.00403 -0.00064 -0.00048 0.00629 -0.00013 -0.00517 0.00215 0.00250 0.00638 0.00055 0.00055 0.00208 0.00878 -0.00469 0.00447 -0.00135 -0.00642 0.00014 0.00239 -0.00201 0.00125 -0.00425 0.00527 0.00843 0.00613 -0.00176 -0.00403 0.00819 -0.00047 -0.00954 -0.00858 -0.00250 0.00807 -0.00601 0.00608 -0.00314 -0.00991 -0.00112 -0.00565 -0.00004 0.00459 -0.00171 -0.00360 -0.00571 0.00098 -0.00567 -0.00926 -0.00535 0.00634 0.00458 0.00036 -0.00168 0.00039 0.00168
-0.13252 0.14245 0.22001 0.07312 0.21515 0.15146 0.11787 0.25420 0.07698 -0.08362 0.20081 0.25801 -0.06229 0.26367 0.12811 0.00835 0.03558 0.39161 -0.35978 -0.22702 0.27457 0.39831 0.35672 0.29827 0.25773 0.22618 0.05350 -0.11497 0.26595 -0.38660 0.44212 0.37185 0.27811 -0.02625 0.04579 -0.00262 -0.00757 -0.01599 0.18170 0.17817 0.18011 0.17785 -0.19399 -0.19410 0.18374 0.18986 -0.15736 -0.16203 0.14443 -0.15361 -0.15043 0.14583 -0.16073 -0.14882
-0.05895 -0.52177 -0.35276 -0.14265 -0.17177 -0.21471 0.22030 -0.21286 0.00526 -0.08713 -0.41523 -0.26440 0.15526 -0.46596 -0.35418 -0.02507 -0.06767 -0.57021 0.02741 0.04426 -0.26356 -0.52634 -0.25028 -0.18078 -0.10419 -1.06727 -0.07365 0.55494 -1.78344 0.15509 -1.18012 -0.84672 -0.63405 -0.22355 -0.37001 0.01409 -0.00414 -0.21414 -0.56747 -0.56968 -0.55627 -0.55763 0.56756 0.58188 -0.56614 -0.56134 0.54906 0.55996 -0.58177 0.56176 0.56238 -0.54726 0.56918 0.55339
-0.25868 0.15158 0.43422 0.02838 0.34141 0.35725 0.08343 0.13204 0.11817 -0.14135 0.40602 0.10423 -0.08862 0.22744 0.22742 0.10724 0.00192 0.21377 -0.34167 -0.18606 0.04361 0.65780 0.32283 0.20995 0.15448 0.18815 0.15813 -0.06164 0.16763 -0.26916 0.62624 0.39086 0.32932 -0.06457 0.10966 -0.00494 -0.01288 -0.00808 0.24405 0.25134 0.24039 0.25519 -0.24479 -0.24481 0.24376 0.25115 -0.04099 -0.02527 0.01300 -0.01508 -0.01765 0.01280 -0.04579 -0.01084
-0.28581 -0.06771 -0.17854 0.09740 -0.09284 -0.02965 0.04797 -0.38918 -0.16333 0.11721 -0.07377 -0.41302 0.21138 -0.44156 -0.05278 -0.06071 -0.03223 -0.49078 0.30772 0.16742 -0.42971 -0.38074 -0.46121 -0.61829 -0.28165 -0.24622 0.01496 0.18993 -0.37025 0.58244 -0.42922 -0.39900 -0.39208 0.01754 0.04652 0.03596 -0.01679 0.02340 -0.15852 -0.16210 -0.15764 -0.16397 0.17697 0.16823 -0.16030 -0.16624 0.11833 0.12088 -0.12368 0.12096 0.12255 -0.12404 0.11821 0.11771
0.01443 0.00645 0.04876 -0.00590 -0.00049 -0.02791 0.03080 -0.00818 -0.00993 0.00338 -0.00680 0.00943 -0.01933 0.01706 -0.01471 0.03053 -0.00279 0.04307 -0.03899 -0.00188 0.00554 0.01659 0.03270 0.00590 0.03819 -0.01284 0.00945 -0.02036 0.02217 -0.04360 0.03696 0.04804 0.02271 -0.01498 -0.01127 -0.00527 -0.00920 -0.00093 0.01387 0.00623 0.00109 0.01345 -0.01377 -0.00520 0.00506 -0.00282 0.03188 0.02993 -0.02531 0.01937 0.02429 -0.03299 0.03694 0.02493
0.25640 0.08077 0.20210 -0.06494 0.12527 0.04964 -0.00777 0.43210 0.16327 -0.05690 0.08925 0.40768 -0.13684 0.43840 0.01296 0.01605 0.04515 0.49490 -0.37238 -0.18157 0.40691 0.41200 0.49724 0.63483 0.26809 0.23320 0.04537 -0.15579 0.34724 -0.58023 0.46788 0.39495 0.37531 -0.00004 -0.00409 -0.00808 -0.01128 -0.00652 0.17629 0.17920 0.17326 0.18188 -0.19134 -0.19410 0.17853 0.18656 -0.14678 -0.14646 0.13336 -0.15208 -0.14476 0.10934 -0.13772 -0.12813
0.02998 0.13087 0.15628 0.10862 0.12548 0.10527 0.08897 0.38276 0.16351 -0.07921 0.16579 0.37210 -0.07706 0.38551 0.04685 0.02290 0.05555 0.48050 -0.30497 -0.22148 0.32555 0.28765 0.47846 0.56550 0.28048 0.25936 0.04357 -0.14332 0.32908 -0.47990 0.44846 0.37282 0.33052 -0.01973 0.02283 -0.00710 -0.00991 -0.01366 0.20141 0.21561 0.20910 0.20161 -0.22297 -0.22163 0.21218 0.20028 -0.14116 -0.14017 0.15078 -0.13519 -0.12680 0.12431 -0.14351 -0.13200
-0.03890 -0.40089 -0.26255 -0.16242 -0.16887 -0.26770 0.30492 -0.17793 -0.00894 -0.05787 -0.37124 -0.31209 0.18376 -0.41671 -0.32393 -0.06853 -0.04035 -0.52704 0.14876 0.15043 -0.29336 -0.28899 -0.23471 -0.12833 -0.10891 -0.93392 0.01413 0.61139 -1.54641 0.23298 -1.01226 -0.79963 -0.54319 -0.15096 -0.26188 0.01021 0.04380 -0.12893 -0.47865 -0.49239 -0.48756 -0.48400 0.49460 0.49917 -0.48378 -0.48230 0.58289 0.58166 -0.60459 0.57400 0.57316 -0.57188 0.60821 0.56681
0.28383 0.06131 0.18968 -0.09013 0.10018 0.05203 -0.03668 0.41155 0.16887 -0.07993 0.08662 0.39137 -0.14978 0.42394 0.03009 0.03803 0.05907 0.47838 -0.28453 -0.17172 0.40101 0.37440 0.46207 0.58961 0.27811 0.22488 0.03278 -0.15021 0.35071 -0.52393 0.39822 0.35570 0.35444 -0.00134 0.00023 -0.00462 -0.01234 -0.00475 0.17502 0.18025 0.16660 0.16143 -0.17199 -0.17851 0.16273 0.18010 -0.15302 -0.16251 0.13667 -0.13899 -0.13519 0.13107 -0.13748 -0.13073
0.00173 -0.00655 -0.01019 -0.00586 -0.00716 -0.00525 0.00513 -0.00379 0.00826 0.00621 -0.01368 -0.00149 0.00364 -0.00410 -0.00671 0.00275 -0.00406 -0.00108 0.00126 -0.00278 -0.01077 0.00142 0.00918 -0.00560 -0.00539 -0.01733 -0.00262 0.00339 -0.02064 -0.00399 -0.00343 -0.00120 -0.00098 -0.01218 -0.01800 -0.00531 -0.00470 -0.01540 -0.01504 -0.00293 -0.00351 0.00192 0.00508 0.00438 0.00000 -0.00471 -0.00596 0.01507 -0.00700 0.00849 0.00693 -0.00652 -0.00437 -0.00584
0.12876 0.08157 0.23548 0.01819 0.13070 0.05380 0.03104 0.39022 0.16514 -0.06491 0.07274 0.36085 -0.09698 0.40149 0.02340 0.04668 0.04127 0.44723 -0.29059 -0.20788 0.36682 0.35595 0.45230 0.60086 0.26302 0.24586 0.01880 -0.15474 0.30265 -0.46598 0.41248 0.35201 0.33330 -0.00599 0.01020 -0.01501 -0.02072 -0.00314 0.16578 0.17178 0.15922 0.16677 -0.16696 -0.17371 0.16551 0.16524 -0.12752 -0.13031 0.11535 -0.11929 -0.12955 0.12018 -0.12286 -0.12314
0.24124 0.03472 0.20888 0.03354 0.08943 0.02755 0.01490 0.38370 0.15713 -0.05474 0.00428 0.41411 -0.13374 0.42034 0.00720 0.07668 0.01638 0.47316 -0.19767 -0.09100 0.39624 0.37288 0.46282 0.57042 0.25708 0.21436 0.01390 -0.16205 0.34342 -0.49248 0.40313 0.32623 0.34871 0.01570 -0.00448 -0.01379 -0.01850 0.00208 0.15434 0.15401 0.15897 0.15443 -0.16265 -0.15708 0.15783 0.15405 -0.09921 -0.10542 0.10852 -0.11727 -0.10686 0.08269 -0.10004 -0.10615
0.11687 0.09709 0.15745 0.00469 0.16234 0.05894 0.03838 0.42547 0.15129 -0.02227 0.10008 0.39952 -0.10588 0.43308 -0.02211 0.02120 0.03354 0.45862 -0.37291 -0.22450 0.38360 0.39060 0.48796 0.62996 0.27663 0.21914 0.04663 -0.14158 0.33422 -0.56062 0.45565 0.38186 0.35897 0.00070 0.00847 -0.00166 -0.00251 -0.01189 0.17542 0.17823 0.18784 0.19099 -0.18968 -0.19754 0.18708 0.19171 -0.15371 -0.15624 0.14658 -0.14471 -0.15432 0.13953 -0.14106 -0.13925
-0.09731 -0.55817 -0.36119 -0.10733 -0.20424 -0.20057 0.23422 -0.21096 0.00829 -0.11498 -0.45224 -0.26521 0.07833 -0.47016 -0.35755 0.03216 -0.08534 -0.57401 0.05179 0.05828 -0.24497 -0.50072 -0.23393 -0.17363 -0.10444 -1.13222 -0.09313 0.58729 -1.74984 0.13928 -1.20330 -0.86081 -0.61973 -0.24779 -0.42363 0.01477 -0.00790 -0.24536 -0.59683 -0.61680 -0.60700 -0.61837 0.61140 0.62216 -0.60247 -0.61499 0.57894 0.58199 -0.59537 0.57442 0.58805 -0.57479 0.60248 0.58056
0.18101 0.11234 0.17539 -0.04237 0.15187 0.06758 0.02366 0.41803 0.11652 -0.02271 0.12734 0.42368 -0.12553 0.44415 -0.01248 -0.01505 0.03367 0.48919 -0.41265 -0.24987 0.41592 0.41171 0.49844 0.62830 0.27624 0.23102 0.04189 -0.14713 0.37291 -0.57674 0.48821 0.38775 0.37364 0.00619 0.00548 -0.01296 -0.00983 -0.01707 0.19383 0.19444 0.19686 0.19112 -0.20660 -0.19445 0.19981 0.19547 -0.15890 -0.15770 0.14203 -0.14653 -0.13982 0.13088 -0.13603 -0.13852
0.00508 -0.05852 -0.00063 -0.03610 -0.06868 -0.04074 0.09851 0.00891 -0.00516 0.04876 -0.09951 -0.06879 0.06401 -0.03416 -0.04700 -0.03395 -0.03747 -0.05805 0.07867 0.08512 -0.05216 -0.02262 -0.02672 -0.03659 -0.04780 -0.14612 0.03647 0.12971 -0.17659 0.03914 -0.12065 -0.08962 -0.06212 -0.02534 -0.00666 -0.00516 -0.00151 -0.00370 -0.06934 -0.06235 -0.06181 -0.06486 0.06758 0.07030 -0.07752 -0.06728 0.21596 0.22151 -0.22464 0.20236 0.22504 -0.22031 0.20427 0.22791
0.00857 -0.00952 -0.00386 -0.00603 -0.01326 -0.00053 0.00392 0.00690 -0.00505 -0.00506 0.00565 -0.00797 0.00567 0.00246 -0.00151 -0.00833 0.00176 -0.00893 -0.00589 -0.00803 -0.00225 0.01221 -0.00022 0.00597 -0.00178 -0.00664 -0.00943 -0.01315 -0.00204 -0.00747 0.00744 0.00046 0.00872 -0.00585 -0.00124 -0.00593 -0.00416 -0.01346 0.00512 0.00586 -0.00394 0.00159 -0.00796 0.00513 0.00072 -0.00102 0.00504 -0.00898 -0.00346 0.00187 -0.00050 -0.00075 0.00728 -0.01003
-0.22877 0.15993 0.27453 0.00914 0.26460 0.36852 0.14316 0.10350 0.11807 -0.06993 0.29734 0.20646 -0.11835 0.16446 0.20613 0.07237 0.04805 0.22757 -0.31196 -0.15184 0.14680 0.49527 0.29157 0.22988 0.15584 0.17776 0.13359 -0.07501 0.24963 -0.33586 0.47757 0.36076 0.28695 -0.05499 0.07972 -0.00600 -0.02297 -0.00683 0.23302 0.22146 0.22716 0.22544 -0.23101 -0.23735 0.22340 0.22591 -0.09137 -0.07499 0.06899 -0.07604 -0.08237 0.07087 -0.09045 -0.06497
-0.10377 -0.49015 -0.31480 -0.03879 -0.14855 -0.18386 0.25575 -0.17262 -0.00449 -0.07313 -0.45765 -0.21976 0.08241 -0.40047 -0.28872 0.08279 -0.05727 -0.42011 0.04582 0.08937 -0.19486 -0.39360 -0.17947 -0.09598 -0.08694 -0.92659 -0.08277 0.45321 -1.38542 0.09929 -0.89098 -0.69134 -0.45626 -0.22763 -0.36307 0.01060 -0.00469 -0.22411 -0.51442 -0.51523 -0.52083 -0.52044 0.51220 0.52639 -0.51767 -0.51011 0.54515 0.55314 -0.56909 0.54233 0.56219 -0.54951 0.56749 0.54215
-0.04741 -0.06329 0.00237 -0.01481 -0.02645 -0.05616 -0.01556 -0.00651 0.00234 -0.00912 -0.07531 -0.03977 0.01515 -0.01298 -0.04740 -0.00942 -0.02366 -0.02747 0.03201 0.00609 -0.02454 -0.03017 -0.01302 -0.00516 -0.00975 -0.06742 -0.05922 -0.04074 -0.06703 -0.01230 -0.06432 -0.05185 -0.01683 -0.07813 -0.06685 -0.00511 -0.00922 -0.07168 -0.07526 -0.08511 -0.08584 -0.09006 0.07599 0.08746 -0.08750 -0.08920 0.08603 0.08165 -0.08230 0.07316 0.07999 -0.09063 0.08473 0.07190
-0.00492 -0.16840 -0.05136 -0.01279 -0.10804 -0.13087 0.03202 -0.04752 0.00401 0.03779 -0.20249 -0.10857 0.03847 -0.11223 -0.12695 -0.06953 -0.07243 -0.17622 0.10371 0.03084 -0.08029 -0.04124 -0.08691 -0.04062 -0.03961 -0.33282 -0.00534 0.16857 -0.35022 0.08962 -0.23223 -0.22346 -0.10392 -0.11887 -0.11752 -0.00011 0.02657 -0.09921 -0.23400 -0.23471 -0.25294 -0.24818 0.23799 0.24945 -0.24423 -0.23365 0.33447 0.31976 -0.32693 0.32011 0.33431 -0.34459 0.33103 0.32632
0.27101 0.03486 0.19390 -0.03218 0.09038 0.02846 -0.01681 0.39777 0.15374 -0.06807 0.01081 0.40166 -0.15863 0.41490 0.00921 0.06190 0.01762 0.46395 -0.22579 -0.11357 0.39641 0.35005 0.46080 0.58297 0.24730 0.24155 0.00596 -0.16111 0.32670 -0.50997 0.37342 0.34450 0.36344 0.00539 -0.00477 -0.00589 -0.01820 -0.00153 0.14134 0.15735 0.15521 0.14847 -0.15603 -0.14878 0.15819 0.15863 -0.11974 -0.12480 0.11819 -0.12053 -0.11759 0.09501 -0.10291 -0.10820
-0.22447 -0.13051 -0.25306 0.09535 -0.15175 -0.09023 0.09153 -0.45978 -0.19017 0.18296 -0.20273 -0.42504 0.19694 -0.45884 -0.08451 -0.04196 -0.05113 -0.55255 0.39315 0.24464 -0.44034 -0.45893 -0.52538 -0.68497 -0.30922 -0.25825 -0.03396 0.19998 -0.43371 0.68443 -0.57686 -0.46764 -0.40206 0.03319 0.01922 -0.01586 -0.00777 0.02206 -0.22271 -0.23566 -0.22128 -0.22418 0.23062 0.24026 -0.23059 -0.22652 0.18398 0.18042 -0.15980 0.18625 0.18318 -0.17078 0.16738 0.16356
0.29005 0.06457 0.21000 -0.07787 0.09481 0.05369 -0.04299 0.41675 0.17360 -0.07460 0.07584 0.39120 -0.17505 0.43155 0.03505 0.05746 0.03151 0.47996 -0.23728 -0.17072 0.41903 0.37122 0.47171 0.60533 0.28186 0.24059 0.02847 -0.15146 0.36321 -0.53493 0.40408 0.37073 0.35053 0.00020 -0.01645 -0.00475 -0.01390 0.00137 0.16650 0.17144 0.17386 0.16231 -0.18295 -0.17154 0.17396 0.17741 -0.13875 -0.13711 0.12215 -0.14639 -0.14225 0.11446 -0.12813 -0.13762
-0.12678 0.14110 0.25961 0.03802 0.25764 0.17758 0.09043 0.21659 0.09431 -0.07572 0.22890 0.27752 -0.02886 0.21226 0.14438 0.02651 0.06424 0.37861 -0.40681 -0.23659 0.24500 0.36658 0.27459 0.25821 0.22465 0.19052 0.09479 -0.07132 0.23792 -0.42089 0.46947 0.40470 0.31557 -0.03581 0.06710 -0.01948 -0.01356 -0.02020 0.19587 0.18338 0.19827 0.17982 -0.18342 -0.19574 0.18005 0.18107 -0.14053 -0.12365 0.12331 -0.12642 -0.12536 0.10927 -0.13853 -0.12104
0.17785 0.06052 0.19735 -0.02175 0.21575 -0.06908 0.03354 0.35645 0.07186 0.07298 0.15303 0.29835 -0.09770 0.39907 -0.03966 -0.05255 0.06343 0.34359 -0.43586 -0.15348 0.29698 0.20315 0.30194 0.53072 0.14130 0.15107 0.04997 -0.14373 0.31402 -0.65907 0.44908 0.40153 0.34393 0.01170 0.03293 -0.01539 -0.00951 -0.03221 0.13586 0.15120 0.15453 0.13694 -0.15456 -0.14995 0.14552 0.15203 0.01099 0.00367 -0.00187 0.00631 0.00927 -0.02562 0.00425 0.01445
-0.00292 -0.01248 -0.01583 -0.01074 -0.00672 -0.01191 -0.00163 -0.01012 0.00791 -0.01967 -0.01156 -0.01119 -0.00280 -0.00439 -0.00576 -0.01440 -0.00846 -0.01029 -0.00767 0.00102 -0.00154 0.00264 -0.00653 -0.00077 -0.01588 -0.00528 -0.01034 -0.00202 -0.01123 -0.00261 -0.01477 -0.00425 -0.01723 -0.00491 -0.01415 -0.00568 -0.00219 -0.01847 -0.01271 0.00236 -0.01137 -0.00728 -0.00106 0.01065 -0.00836 -0.01620 0.00485 -0.00058 0.00040 -0.00798 0.00652 -0.00664 0.00814 -0.00669
-0.08925 -0.52541 -0.36233 -0.13361 -0.16689 -0.20359 0.21304 -0.22919 -0.00657 -0.11252 -0.42856 -0.26142 0.10903 -0.46618 -0.35429 -0.01044 -0.06593 -0.57215 0.04504 0.04449 -0.25208 -0.50480 -0.23588 -0.18389 -0.09374 -1.06509 -0.08598 0.56841 -1.75972 0.16547 -1.18390 -0.84609 -0.62835 -0.23451 -0.39309 0.01382 -0.00513 -0.22579 -0.57315 -0.58350 -0.58242 -0.57991 0.58234 0.60192 -0.59663 -0.57923 0.56278 0.55743 -0.57552 0.56586 0.56726 -0.55754 0.58620 0.55889
-0.04514 -0.50222 -0.32824 -0.14738 -0.15352 -0.21102 0.20443 -0.21487 0.00129 -0.08242 -0.42212 -0.27296 0.17071 -0.47148 -0.35210 -0.04443 -0.06143 -0.55997 0.02050 0.04292 -0.25924 -0.50733 -0.23020 -0.19478 -0.09290 -1.01991 -0.07087 0.53350 -1.73347 0.14730 -1.17325 -0.85055 -0.63209 -0.20918 -0.35667 0.01569 -0.00049 -0.19748 -0.53883 -0.53514 -0.52980 -0.52847 0.53277 0.53847 -0.53142 -0.54177 0.53557 0.53098 -0.53626 0.53976 0.52377 -0.52397 0.56100 0.53344
0.09937 0.10693 0.18522 0.03374 0.14388 0.07049 0.05490 0.39333 0.17201 -0.08445 0.11656 0.36677 -0.09668 0.42262 0.01530 0.04289 0.06943 0.47917 -0.28829 -0.23160 0.35061 0.37837 0.46584 0.58709 0.24900 0.22592 0.03539 -0.12817 0.31451 -0.49770 0.41829 0.36070 0.33459 -0.00850 0.00970 -0.01064 -0.01827 -0.00968 0.17964 0.18956 0.19323 0.17699 -0.19639 -0.19096 0.18970 0.17838 -0.14407 -0.12695 0.12584 -0.13889 -0.13238 0.12672 -0.12726 -0.12717
0.23496 0.04348 0.19508 -0.06786 0.17484 0.04127 0.06097 0.42647 0.07948 0.02734 0.06940 0.45033 -0.12952 0.41785 -0.04806 -0.03795 0.00035 0.48004 -0.39918 -0.23578 0.39074 0.38878 0.50533 0.61913 0.25208 0.21925 0.02070 -0.17142 0.33904 -0.54970 0.46099 0.39443 0.35406 0.00948 -0.00897 -0.00231 -0.01015 -0.01714 0.15845 0.16422 0.16678 0.16114 -0.17705 -0.16211 0.17112 0.16944 -0.16311 -0.16433 0.15471 -0.15452 -0.14871 0.13601 -0.15159 -0.16171
-0.01030 -0.00437 0.00471 0.00564 -0.01376 -0.00483 0.00600 -0.00271 0.00542 -0.01138 -0.01406 -0.00355 0.00839 -0.00136 -0.01452 -0.00771 0.00006 -0.00327 -0.00114 0.00646 -0.00872 -0.00376 -0.00099 0.00535 0.00101 -0.01420 0.00200 0.00736 -0.00621 -0.00286 -0.00937 0.00180 0.00456 -0.00985 -0.01192 -0.00454 -0.00460 -0.00411 -0.00463 0.00391 0.00586 -0.00062 0.00980 0.00110 -0.01227 0.00114 0.00027 0.01439 -0.00255 0.00320 -0.00199 0.00169 -0.01120 0.00907
0.29757 0.07857 0.17624 -0.08556 0.11071 0.04669 -0.03488 0.41297 0.16405 -0.04440 0.09246 0.41425 -0.15427 0.43031 0.00413 0.00031 0.05600 0.48691 -0.38241 -0.21299 0.41620 0.38624 0.47890 0.62526 0.26719 0.25107 0.01410 -0.15419 0.34041 -0.52272 0.40303 0.35937 0.36167 0.00259 -0.02256 -0.00802 -0.01375 -0.00130 0.15939 0.16638 0.16697 0.16956 -0.17787 -0.17315 0.16196 0.16564 -0.16409 -0.17299 0.16019 -0.15701 -0.16039 0.15205 -0.15089 -0.14549
0.07154 0.09884 0.10016 -0.05161 0.09757 0.04540 -0.04229 0.17209 0.04696 -0.08337 0.10200 0.29421 -0.12470 0.30331 0.00310 0.02291 -0.01200 0.32978 -0.23603 -0.16426 0.35203 0.24271 0.37444 0.30973 0.26225 0.15996 0.00187 -0.13822 0.22558 -0.39364 0.37136 0.31571 0.24327 -0.00546 -0.03161 -0.00420 -0.00729 -0.02827 0.11907 0.13157 0.12538 0.11572 -0.12540 -0.12234 0.13272 0.12661 -0.14490 -0.15908 0.15392 -0.14220 -0.14910 0.13439 -0.14240 -0.15383
-0.06360 -0.51967 -0.35433 -0.14806 -0.15754 -0.22092 0.21372 -0.20918 -0.00405 -0.08481 -0.41181 -0.27195 0.16843 -0.46442 -0.36730 -0.02732 -0.06094 -0.57313 0.02683 0.03389 -0.26019 -0.51362 -0.24190 -0.18038 -0.08543 -1.04889 -0.06866 0.55588 -1.77296 0.16334 -1.17874 -0.83676 -0.63104 -0.22954 -0.36823 0.01443 -0.00057 -0.20004 -0.55520 -0.56081 -0.56244 -0.55941 0.56797 0.55984 -0.55313 -0.56049 0.55103 0.55722 -0.55896 0.55072 0.54941 -0.54970 0.56467 0.54803
0.00896 -0.01581 -0.00720 0.00901 0.00109 0.00939 -0.00366 0.00438 -0.00721 0.00224 -0.00150 -0.00385 0.00407 -0.00038 -0.00133 0.00506 0.01106 -0.00383 0.00146 0.00030 -0.00318 0.01289 0.00295 0.00408 -0.00517 0.00377 -0.00243 0.00305 -0.00641 0.00042 0.00144 0.00488 0.00550 -0.01500 -0.00326 -0.00456 -0.00903 -0.00520 -0.00547 -0.00920 0.00801 0.00931 -0.00816 -0.00523 0.00187 -0.00701 0.00525 -0.00505 0.00049 -0.00867 0.00187 -0.00160 -0.00076 -0.00955
0.29736 0.07067 0.18365 -0.07929 0.09987 0.06166 -0.02671 0.41022 0.17817 -0.10154 0.06896 0.39306 -0.14491 0.41661 0.02818 0.06516 0.03404 0.47656 -0.24919 -0.20347 0.41350 0.37480 0.46044 0.58929 0.27701 0.24720 0.00779 -0.17774 0.36077 -0.48858 0.38720 0.35541 0.35986 -0.00400 -0.01159 -0.00266 -0.01614 0.00370 0.17335 0.17297 0.16204 0.17179 -0.17425 -0.18571 0.16625 0.16312 -0.14914 -0.15875 0.14187 -0.14834 -0.14798 0.12671 -0.13739 -0.13896
-0.06784 -0.24360 -0.10987 -0.03836 -0.10634 -0.14264 0.15080 -0.09521 0.00016 0.03046 -0.22938 -0.16908 0.07246 -0.17070 -0.15746 -0.02488 -0.09113 -0.18756 0.11555 0.11432 -0.10394 -0.18731 -0.07801 -0.07479 -0.07999 -0.43967 -0.04476 0.23873 -0.52723 0.05472 -0.34747 -0.37213 -0.23812 -0.15566 -0.16549 -0.00129 0.00202 -0.12890 -0.31049 -0.30603 -0.31141 -0.29788 0.30611 0.30878 -0.31432 -0.30756 0.42850 0.41998 -0.44033 0.41086 0.42033 -0.42968 0.42963 0.42655
0.15753 0.10089 0.18717 -0.05181 0.16186 0.05620 0.01761 0.42108 0.06842 0.02737 0.08587 0.40773 -0.12868 0.43920 -0.01451 -0.00080 -0.00326 0.46932 -0.39952 -0.23007 0.39889 0.35557 0.48204 0.63506 0.26862 0.21245 0.03899 -0.14288 0.33428 -0.60642 0.45904 0.42270 0.38672 0.01009 0.00922 -0.00107 -0.01348 -0.02753 0.16528 0.18094 0.17616 0.18103 -0.19188 -0.18478 0.18423 0.18345 -0.15186 -0.16280 0.16246 -0.15373 -0.15389 0.13770 -0.16080 -0.14190
